export const json1 = '{"layers":[{"weights":{"type":"f32","elements":[{"type":"f32","elements":[0.11332249641418457,-0.3630921244621277,-0.10447573661804199,0.4037245213985443,0.16812898218631744,-0.03293171152472496,0.018530694767832756,-0.369224488735199,-0.40571972727775574,-0.3358038067817688,0.42772820591926575,0.49619027972221375,0.3530992865562439,0.3578912019729614,0.4258882999420166,-0.004586165305227041,0.2503083646297455,-0.2029689997434616,0.43483856320381165,0.2502039968967438,-0.4665265679359436,-0.3664037585258484,0.4830130636692047,-0.2367582768201828,0.4895014762878418,0.07743307948112488,-0.17038361728191376,0.11268354207277298,-0.22439713776111603,-0.2047291398048401,-0.022185740992426872,0.29277074337005615,-0.17626041173934937,0.15612153708934784,-0.1970531940460205,0.476340115070343,0.4676586389541626,0.24054011702537537,0.011359036900103092,0.2589106857776642,-0.28350400924682617,-0.34873974323272705,-0.08165828138589859,-0.2889644205570221,-0.3781640827655792,0.011065896600484848,-0.4857498109340668,-0.03636233136057854,-0.014294929802417755,0.1882576197385788,0.0996989905834198,-0.07271581143140793,-0.22265666723251343,-0.45881620049476624,-0.3255348801612854,0.26266226172447205,0.006680370308458805,0.10972859710454941,-0.23188108205795288,-0.39370080828666687,-0.07195232063531876,0.45326095819473267,0.38275793194770813,0.4516112208366394,0.4945983588695526,0.40939438343048096,-0.16395893692970276,-0.36497950553894043,-0.09262192994356155,-0.15435561537742615,0.29778343439102173,0.21519735455513,0.48650604486465454,0.32855385541915894,-0.03310713171958923,-0.11728372424840927,-0.28226083517074585,-0.27470800280570984,-0.43133825063705444,-0.12296651303768158,0.06400244683027267,-0.31436023116111755,-0.2506607174873352,-0.21764197945594788,0.15025463700294495,-0.1102057620882988,-0.39713165163993835,-0.3465811312198639,-0.021208401769399643,-0.10895694047212601,0.4592455327510834,-0.04028680548071861,-0.20192502439022064,0.024354400113224983,-0.44370993971824646,0.12283597141504288,0.3678697645664215,-0.1935722827911377,-0.3837057948112488,0.28146031498908997,0.41651952266693115,0.22705011069774628,0.2505229413509369,-0.3947213888168335,-0.005362707190215588,-0.10184274613857269,-0.10262574255466461,-0.226077139377594,0.33382532000541687,0.344843327999115,0.4841451346874237,0.45172592997550964,0.19076280295848846,-0.06254518777132034,0.39287069439888,-0.00394925381988287,-0.3344324827194214,-0.1354471892118454,-0.16317711770534515,-0.3741030991077423,0.3955419957637787,0.11620069295167923,-0.023705894127488136,-0.3258681893348694,-0.002776792738586664,0.2954808473587036,0.43743962049484253,0.3397623300552368,0.08894355595111847,-0.19245865941047668,-0.3117251396179199,-0.4481441378593445,-0.3686739504337311,0.08873260766267776,0.2763530910015106,0.2050367295742035,-0.30109044909477234,-0.4362955391407013,0.06458614766597748,-0.3974064290523529,0.05203339457511902,0.035206735134124756,-0.0732555240392685,-0.2377910614013672,-0.277585506439209,0.14508764445781708,-0.4369649291038513,0.4595946669578552,0.09596266597509384,-0.2001829594373703,-0.3775072991847992,0.25077512860298157,-0.04864532873034477,-0.000025617890059947968,0.37967753410339355,0.007334752939641476,-0.47127750515937805,-0.40357357263565063,-0.18638300895690918,0.20758621394634247,-0.018424885347485542,-0.3831813335418701,-0.31292226910591125,-0.4298420250415802,-0.3031117022037506,-0.13841304183006287,0.4901512563228607,-0.3364963233470917,-0.27518001198768616,0.4311324656009674,0.267219603061676,0.4162555932998657,-0.4259911775588989,0.4679485857486725,-0.04752093553543091,0.16573359072208405,-0.35836970806121826,0.14015457034111023,0.20816871523857117,0.44790634512901306,0.22892209887504578,0.46203285455703735,0.32716938853263855,0.4347996711730957,0.23895828425884247,-0.20232059061527252,-0.49766087532043457,0.0029036556370556355,-0.37395262718200684,0.17306089401245117,0.11270838975906372,-0.08324745297431946,-0.3710397183895111,-0.26121848821640015,-0.29200905561447144,-0.11164403706789017,-0.26633769273757935,0.2580455541610718,-0.06109672039747238,-0.4389614760875702,-0.13234759867191315,-0.2390304058790207,0.4071628153324127,0.444333553314209,0.3233729898929596,-0.12065645307302475,-0.19973288476467133,-0.44047728180885315,-0.3427121043205261,-0.1575690656900406,0.22268450260162354,-0.1994255781173706,-0.28759342432022095,-0.3823062479496002,-0.30335578322410583,0.04379894956946373,0.297002375125885,-0.4060060679912567,-0.18814164400100708,-0.19628508388996124,-0.4590910077095032,-0.19185586273670197,-0.3527422249317169,-0.0777042806148529,0.12465208768844604,0.34155428409576416,-0.06451420485973358,-0.21240004897117615,0.464109867811203,-0.1673603355884552,0.006529155187308788,0.3229934573173523,-0.12708434462547302,-0.4374317228794098,0.14910529553890228,0.4671730399131775,-0.3426426947116852,0.34517496824264526,0.02190421149134636,0.3155148923397064,-0.14316196739673615,0.25656506419181824,-0.17470569908618927,0.17748525738716125,0.09315762668848038,-0.12934720516204834,0.16882184147834778,-0.2884002923965454,0.31387805938720703,-0.17192848026752472,-0.20083537697792053,-0.4289569556713104,-0.2667248249053955,-0.27963370084762573,0.03452087938785553,0.06663753092288971,0.006390141788870096,0.09400849789381027,-0.03643859550356865,0.14655275642871857,-0.22902114689350128,-0.499789297580719,0.05079980567097664,0.28683340549468994,0.1439490020275116,0.3972148895263672,-0.3035763204097748,0.4139695465564728,0.3987922966480255,-0.26276859641075134,-0.4338623583316803,-0.3760981559753418,-0.16561129689216614,0.42016950249671936,0.0800296887755394,-0.3356582522392273,-0.1618698537349701,0.16148322820663452,-0.2435484528541565,0.14528971910476685,0.2991529405117035,-0.11937013268470764,0.0664668008685112,-0.24377062916755676,-0.19739551842212677,0.46592575311660767,0.07451101392507553,0.098820261657238,0.0243227556347847,0.42137208580970764,0.08706163614988327,0.31861206889152527,-0.33189502358436584,0.19684576988220215,-0.20004141330718994,-0.4960198998451233,-0.3810526132583618,-0.07588119059801102,0.21632415056228638,0.20612835884094238,0.26957207918167114,0.3654571771621704,-0.35269466042518616,0.474092960357666,0.2744715213775635,-0.4764537513256073,-0.02405441179871559,-0.496675044298172,0.4744615852832794,-0.21077117323875427,-0.4900091886520386,0.29943305253982544,0.22924558818340302,0.03988436982035637,0.2607820928096771,-0.2070958912372589,-0.4752036929130554,-0.18106107413768768,-0.2796415388584137,-0.009207398630678654,-0.24209804832935333,0.4229237735271454,-0.4857202172279358,0.020046642050147057,0.48414885997772217,0.3200729191303253,0.21355096995830536,-0.33605948090553284,0.12021110951900482,-0.22315017879009247,0.21957410871982574,0.2921558618545532,0.4497975707054138,-0.37955552339553833,-0.2882486879825592,0.4858819246292114,0.2792605757713318,-0.42573752999305725,0.03331264480948448,-0.41910767555236816,-0.303433358669281,-0.047504302114248276,-0.41153591871261597,-0.3170838952064514,-0.05231165140867233,0.43529048562049866,-0.018047481775283813,0.1854228526353836,0.33966922760009766,-0.06096485257148743,0.12366636097431183,-0.274257630109787,-0.41090792417526245,0.26678797602653503,-0.36160898208618164,-0.18480251729488373,0.05681951344013214,-0.4455011188983917,-0.4253060221672058,-0.11574570834636688,-0.45338553190231323,0.3377838134765625,-0.39279666543006897,-0.3011772036552429,-0.4728067219257355,-0.4340137243270874,-0.11145445704460144,0.28931277990341187,-0.05268542468547821,-0.3587329089641571,0.37636327743530273,-0.49322599172592163,0.12990456819534302,0.08090600371360779,-0.09409719705581665,-0.2725299596786499,-0.197996586561203,-0.36947664618492126,-0.2875750958919525,0.25121214985847473,0.41464024782180786,0.015727082267403603,-0.2989097833633423,-0.31508582830429077,-0.31730660796165466,-0.16066008806228638,0.046449676156044006,-0.41743841767311096,0.03778979927301407,-0.2539026439189911,0.4409494996070862,0.45270228385925293,-0.022601790726184845,0.43595993518829346,-0.06387998163700104,0.31657838821411133,-0.21774174273014069,0.24628056585788727,0.47310203313827515,0.4938950538635254,-0.13899452984333038,-0.3234293460845947,0.2846440076828003,0.37769585847854614,0.027377638965845108,-0.43370160460472107,-0.3848629593849182,0.13225975632667542,0.19525298476219177,-0.22931478917598724,-0.3165522515773773,-0.14363740384578705,-0.2781616151332855,0.49556204676628113,0.1949896663427353,-0.48464488983154297,0.09300349652767181,0.22162456810474396,0.13118469715118408,0.3451803922653198,-0.32594260573387146,0.37851735949516296,0.13564066588878632,0.26650649309158325,0.0061732991598546505,0.4930517077445984,0.38532987236976624,0.15675926208496094,-0.05599530041217804,0.40401971340179443,0.12630486488342285,0.13858015835285187,0.34149065613746643,0.029391024261713028,-0.3578113317489624,-0.4706522524356842,0.4929094612598419,0.02655070088803768,-0.39664262533187866,0.3284086287021637,-0.028330326080322266,-0.2861042022705078,0.22064562141895294,0.27669861912727356,-0.4533579647541046,-0.42219477891921997,-0.1516493856906891,0.05224648863077164,0.43187859654426575,-0.32521381974220276,0.2701150178909302,-0.33931851387023926,0.422212690114975,-0.03542278707027435,-0.15869532525539398,0.3991296589374542,-0.03284335881471634,-0.3206481337547302,0.28256678581237793,0.2835945188999176,0.18420350551605225,0.26284411549568176,0.12043609470129013,-0.30810871720314026,-0.14882764220237732,0.09497439861297607,-0.49135273694992065,0.1331724226474762,-0.23368164896965027,-0.22472594678401947,-0.02361024171113968,0.0525624081492424,0.42195042967796326,-0.4070342183113098,-0.10587470233440399,0.04884814843535423,0.43354782462120056,-0.38886597752571106,0.4658924639225006,0.2993406057357788,0.3967539966106415,0.011196290142834187,-0.4641260504722595,0.06271465122699738,-0.37424445152282715,0.2440636307001114,-0.3899650573730469,0.25623631477355957,-0.1408662050962448,-0.4381297528743744,-0.387256920337677,-0.31740546226501465,0.26034530997276306,0.11049377918243408,0.3166080117225647,0.040887221693992615,0.4998723566532135,0.4077821671962738,-0.04376731067895889,-0.21635878086090088,-0.3401487171649933,-0.3437808156013489,-0.4968366324901581,0.45977744460105896,0.3235282301902771,-0.3060849905014038,0.4599611759185791,0.06312867254018784,0.0451752170920372,-0.4681582450866699,-0.29031121730804443,0.3604562282562256,-0.22968924045562744,0.05764374881982803,-0.4591602683067322,-0.4790355861186981,0.20370621979236603,-0.2836601436138153,-0.45076116919517517,-0.04341207072138786,-0.3334188759326935,-0.059739090502262115,-0.1216411143541336,0.27350783348083496,-0.22604617476463318,-0.4018441438674927,0.32046133279800415,-0.26822924613952637,0.3110179305076599,-0.22376270592212677,0.16443246603012085,0.3146328926086426,0.4036599099636078,-0.30719977617263794,-0.2644290328025818,-0.33847418427467346,0.004439142532646656,-0.49286043643951416,-0.3589019775390625,0.33427682518959045,-0.26539695262908936,0.4552299380302429,-0.13841475546360016,0.4872482717037201,-0.3005444407463074,0.341580331325531,-0.3255438506603241,0.2902313470840454,0.21160787343978882,-0.3757493495941162,-0.2267337590456009,-0.07925157248973846,-0.47197771072387695,-0.3421410024166107,0.2620853781700134,0.4404323995113373,-0.027927542105317116,-0.4190814793109894,0.16124585270881653,0.0075029050931334496,0.4713858962059021,-0.40035974979400635,-0.37167617678642273,0.4643837511539459,0.06732271611690521,0.4049849212169647,-0.47148236632347107,-0.19443534314632416,-0.062176093459129333,0.41479504108428955,0.27033713459968567,-0.2886538803577423,-0.444847971200943,0.3689972460269928,-0.003409644355997443,-0.3909400403499603,-0.05431697145104408,0.3447728157043457,0.3748128414154053,0.3415054380893707,-0.38938871026039124,0.3009699881076813,0.06424631923437119,-0.3556668162345886,-0.24094486236572266,-0.02573079615831375,0.31590503454208374,0.2697734236717224,-0.062478501349687576,0.07609421014785767,0.024034664034843445,0.19071581959724426,-0.07693009823560715,-0.325442373752594,-0.47757455706596375,-0.16299772262573242,0.4346732497215271,0.25510939955711365,0.45777884125709534,-0.44688165187835693,0.01903364062309265,0.34233084321022034,-0.011077463626861572,0.32142043113708496,0.05176093801856041,-0.07889970391988754,0.20495176315307617,-0.15862789750099182,0.052015192806720734,-0.46734145283699036,-0.3288978934288025,-0.3238028883934021,0.29780393838882446,-0.2964684069156647,0.14600786566734314,-0.05394439771771431,0.02299995720386505,0.46267297863960266,0.45008692145347595,-0.2539790868759155,-0.2895532250404358,-0.14372822642326355,-0.06278209388256073,-0.22700704634189606,-0.024084819480776787,-0.20283867418766022,-0.17105336487293243,0.07822742313146591,0.1968720555305481,-0.23474209010601044,-0.3090086281299591,0.3025597631931305,-0.23406116664409637,0.44152963161468506,0.29390549659729004,0.28975188732147217,-0.07561924308538437,0.16232353448867798,0.19630074501037598,-0.3711957037448883,0.17942200601100922,0.27836763858795166,-0.05066944658756256,0.1260908991098404,-0.09347403794527054,-0.4383162558078766,-0.4079328775405884,0.05518903583288193,-0.44840487837791443,0.4390401542186737,-0.2900376319885254,-0.2245751917362213,0.19923768937587738,0.005311755463480949,0.4323261082172394,-0.042970359325408936,-0.14110402762889862,0.4795631170272827,0.4644829034805298,-0.18706148862838745,0.42244431376457214,-0.09227603673934937,-0.4601072072982788,-0.22103473544120789,-0.4569198787212372,-0.21291862428188324,0.477235347032547,0.2114935964345932,-0.48260465264320374,-0.11792948842048645,0.13267932832241058,-0.21134522557258606,0.3324336111545563,0.06328748166561127,-0.0125069385394454,-0.4343322515487671,-0.3269624412059784,0.0009324103593826294,-0.43269437551498413,-0.322849303483963,-0.26653411984443665,0.4034974277019501,0.1005372479557991,0.19527964293956757,0.2671774923801422,-0.37582865357398987,0.18946398794651031,-0.31487393379211426,-0.42630255222320557,0.24611887335777283,0.09467071294784546,-0.34180206060409546,-0.3916890323162079,0.20744740962982178,0.020008912310004234,0.2630874514579773,-0.26984262466430664,0.40596482157707214,-0.35577988624572754,0.04646454006433487,0.07887833565473557,0.49695998430252075,0.013685681857168674,0.42853885889053345,0.2930449843406677,-0.44006574153900146,-0.014466664753854275,0.4376569986343384,0.007513486314564943,0.08085569739341736,0.28687378764152527,-0.19468319416046143,0.013982224278151989,0.10785921663045883,0.4527954161167145,-0.2824377119541168,-0.40064501762390137,-0.010081155225634575,-0.44778308272361755,0.1922246366739273,-0.2967953383922577,0.012379216961562634,-0.010823271237313747,0.10754217952489853,-0.15382811427116394,-0.33403849601745605,-0.07980155199766159,-0.3292098045349121,-0.4978797733783722,0.07997366786003113,-0.3460879921913147,0.3695620000362396,0.2419523000717163,-0.46806806325912476,0.04934275895357132,-0.05310165509581566,-0.2932293713092804,0.47207358479499817,0.3159252405166626,-0.0014609333593398333,-0.0564519464969635,0.44958582520484924,0.473590224981308,0.15547411143779755,-0.3618159592151642,-0.2714903652667999,0.007005287334322929,0.039614755660295486,-0.18565687537193298,0.39574864506721497,0.05561221390962601,-0.09861490875482559,0.042145080864429474,-0.3958762288093567,0.4664008915424347,-0.1948632448911667,-0.0654463917016983,0.026872269809246063,0.03949388861656189,-0.062409162521362305,0.0668010339140892,-0.15651632845401764,-0.34111979603767395,0.23085540533065796,0.34998536109924316,-0.16951310634613037,-0.3899279832839966,-0.44697898626327515,-0.027146080508828163,0.41650140285491943,-0.40912801027297974,0.43174612522125244,0.09277423471212387,-0.43995416164398193,-0.14737920463085175,-0.31648150086402893,0.197760671377182,-0.21782420575618744,-0.19809213280677795,-0.2001718133687973,-0.4063521921634674,-0.4284003973007202,0.3453986942768097,0.025293394923210144]},{"type":"f32","elements":[-0.11748740822076797,-0.02080352045595646,0.009738946333527565,0.36234185099601746,0.4280354082584381,-0.10967211425304413,0.4275267720222473,-0.39639413356781006,-0.34838783740997314,0.27821555733680725,-0.21506789326667786,0.3549319803714752,0.15920552611351013,0.4231666028499603,0.21072715520858765,0.295894593000412,-0.369459867477417,0.37766796350479126,0.04999722167849541,-0.32284465432167053,-0.05457810312509537,0.07407913357019424,-0.1824943572282791,0.1285824477672577,-0.08066820353269577,0.1493159532546997,0.1948709338903427,0.13894350826740265,-0.4480469524860382,0.22705309092998505,0.34793806076049805,0.3354174792766571,0.23202933371067047,0.008542562834918499,0.062434159219264984,-0.2459745705127716,-0.1269029825925827,-0.4599190354347229,0.2958400845527649,-0.34849369525909424,-0.3362525999546051,-0.47869569063186646,-0.29320353269577026,0.3398030400276184,0.19995558261871338,0.2926413416862488,0.4075610637664795,0.3741232454776764,-0.005570388399064541,0.2071649581193924,-0.359355628490448,-0.033204689621925354,0.24457034468650818,-0.24096430838108063,0.4615611433982849,-0.2283760905265808,-0.0756661593914032,0.1695631742477417,-0.3787750005722046,0.16074322164058685,0.46937820315361023,-0.2797214388847351,-0.0073591857217252254,0.06887925416231155,-0.1831226497888565,-0.31099942326545715,0.04272496700286865,-0.4089038372039795,-0.32998189330101013,0.49400365352630615,-0.41825971007347107,0.1515258401632309,0.18228937685489655,0.3124108612537384,-0.06722301989793777,0.3925814926624298,0.4333855211734772,-0.3577040433883667,0.24719573557376862,-0.32352325320243835,-0.046911969780921936,-0.400323748588562,0.31345829367637634,-0.026881033554673195,0.04627710580825806,-0.04249858483672142,-0.4499528408050537,0.29856058955192566,0.34109461307525635,-0.3060304820537567,0.043380603194236755,0.4504644274711609,-0.18978780508041382,-0.22780153155326843,-0.1150263249874115,-0.038522880524396896,-0.06099538877606392,0.08671744167804718,-0.029246805235743523,-0.33346956968307495,0.24910978972911835,-0.3474264442920685,-0.299358993768692,0.3826356530189514,0.08796394616365433,0.13837891817092896,-0.21653640270233154,-0.008403926156461239,0.427933931350708,0.1402060091495514,0.01295405812561512,-0.025774652138352394,0.22525502741336823,-0.473935604095459,0.4188012480735779,-0.3451976776123047,-0.271537721157074,0.3841701149940491,-0.27981895208358765,0.4250735640525818,-0.36928847432136536,-0.25863543152809143,0.12221337109804153,-0.4950830340385437,0.13265296816825867,0.4333652853965759,-0.36058297753334045,0.10178536176681519,0.16564981639385223,-0.12141765654087067,-0.18357893824577332,-0.10257841646671295,-0.31436747312545776,-0.492128849029541,0.42254337668418884,-0.3276625871658325,-0.1867682784795761,0.012101544067263603,0.4910292625427246,0.312568724155426,-0.4412614703178406,0.34301304817199707,0.14253957569599152,0.25576141476631165,0.09157189726829529,-0.34556683897972107,0.3884788155555725,0.35560059547424316,0.4854913353919983,0.2884678244590759,-0.42374199628829956,-0.17215009033679962,0.18372778594493866,-0.1627192348241806,0.016043663024902344,0.061603862792253494,0.49905845522880554,-0.09179297834634781,-0.27506008744239807,-0.47896885871887207,0.34042808413505554,-0.4386780560016632,0.3579723536968231,0.29930463433265686,0.24572548270225525,-0.3769444525241852,-0.1131771132349968,0.08608848601579666,0.30368635058403015,-0.2473248541355133,0.014067355543375015,-0.10212605446577072,-0.2117842435836792,0.16693651676177979,-0.14341610670089722,0.3982114791870117,-0.3644329309463501,0.03956282138824463,-0.4263119697570801,-0.15419258177280426,-0.10291657596826553,-0.3336978256702423,0.3538069725036621,-0.36585110425949097,0.0086296321824193,0.2919883131980896,-0.47156229615211487,0.3646249771118164,0.16231487691402435,0.44666340947151184,0.21842321753501892,-0.08902539312839508,0.1977837085723877,0.4472961127758026,-0.1388847678899765,-0.007306387647986412,0.456005334854126,0.13000799715518951,0.4948444366455078,0.31351080536842346,0.24022206664085388,0.49870121479034424,-0.034942273050546646,0.4786469042301178,0.2204500436782837,-0.20269446074962616,-0.24233178794384003,-0.4903545379638672,0.15483620762825012,0.08711732178926468,0.41900211572647095,0.07545950263738632,-0.2790621519088745,-0.3409756124019623,-0.4653557538986206,-0.3282645344734192,-0.2902221083641052,-0.4548926055431366,-0.24761703610420227,0.388811320066452,0.34856417775154114,-0.48554515838623047,-0.1623443216085434,-0.40958598256111145,0.36235544085502625,0.3578808307647705,0.008242317475378513,0.09430762380361557,0.14055584371089935,0.008445690385997295,-0.29546627402305603,-0.3675546646118164,-0.27009856700897217,0.20561259984970093,-0.20666755735874176,0.4550436735153198,-0.09911514073610306,0.3964649438858032,-0.3749310076236725,0.1312064677476883,0.402774453163147,0.34629544615745544,-0.07665891945362091,0.27050426602363586,-0.1841477006673813,-0.4760071635246277,0.3879081904888153,-0.4434891641139984,0.12212459743022919,0.19420874118804932,-0.4694061279296875,0.3225423991680145,-0.004189938772469759,0.1725243180990219,0.23434171080589294,0.3479490876197815,0.3259500563144684,-0.4891878366470337,-0.19933603703975677,0.40063145756721497,-0.32874226570129395,0.14218565821647644,-0.07767828553915024,-0.39217811822891235,-0.19799940288066864,-0.4615345001220703,0.1816476434469223,0.42324113845825195,0.31515151262283325,-0.4261559844017029,-0.009051144123077393,-0.17243225872516632,-0.08539976179599762,0.15117210149765015,0.30378493666648865,-0.1401728242635727,-0.3712332844734192,0.2188805639743805,0.38229674100875854,-0.19797857105731964,0.11320234090089798,0.36808183789253235,0.30438032746315,0.37734609842300415,0.2487296313047409,-0.0989556685090065,-0.42740464210510254,0.28603416681289673,-0.37271007895469666,0.1537584513425827,-0.15100927650928497,-0.27313417196273804,0.1445407271385193,0.31708577275276184,-0.3313433527946472,-0.20843403041362762,-0.18860386312007904,-0.4537193477153778,-0.4969664216041565,-0.48364102840423584,-0.16055169701576233,0.4286945164203644,-0.16376468539237976,-0.2083800882101059,0.08275637030601501,-0.07676324993371964,-0.09152133762836456,-0.05153893306851387,0.2101263701915741,-0.31162863969802856,-0.23443524539470673,-0.03374157100915909,0.1716097593307495,0.032062605023384094,-0.36328133940696716,-0.32231053709983826,0.1340225338935852,0.442870169878006,0.0005753757432103157,-0.41830867528915405,0.04894294962286949,-0.0886031985282898,-0.22446566820144653,-0.10917849093675613,0.22216175496578217,-0.11946164071559906,0.0817503109574318,-0.39365530014038086,0.25008949637413025,0.3691537082195282,0.45225369930267334,0.00019095977768301964,-0.06572231650352478,0.3033921420574188,0.35413989424705505,-0.04240532964468002,0.08068282157182693,0.1574193239212036,0.1961052566766739,-0.041493676602840424,-0.2131774127483368,0.35612955689430237,0.07849743217229843,-0.24080578982830048,0.47558528184890747,0.162083700299263,0.005551925860345364,0.4676780104637146,-0.09564273059368134,0.284237802028656,-0.17332421243190765,0.06625451892614365,0.13579092919826508,0.13279379904270172,0.010581249371170998,-0.3601391911506653,0.0862455889582634,-0.29496437311172485,0.32818666100502014,0.4373820126056671,-0.2853871285915375,-0.18370652198791504,0.2336011528968811,-0.03571454435586929,-0.10042733699083328,0.42382195591926575,-0.2195039689540863,-0.11143825948238373,0.23684850335121155,0.4700153172016144,-0.04397786036133766,-0.054516635835170746,0.16727538406848907,-0.07268063724040985,-0.4850398004055023,-0.14473392069339752,-0.24277323484420776,0.06374508142471313,-0.397970050573349,-0.12479673326015472,0.04297719895839691,0.4478582739830017,0.10060357302427292,0.48213204741477966,-0.2936830222606659,0.4492076337337494,-0.12831789255142212,-0.2612951099872589,-0.3623727858066559,0.4883231222629547,0.18080487847328186,-0.36098507046699524,-0.404673308134079,-0.02030497044324875,0.1703062504529953,-0.044158581644296646,-0.3354909121990204,-0.2787574827671051,0.12885861098766327,-0.04773006588220596,-0.03715598210692406,-0.38779836893081665,0.15572719275951385,0.27677375078201294,-0.2269096076488495,0.44180387258529663,-0.29248958826065063,-0.2793487012386322,0.30291128158569336,0.054924458265304565,-0.233661487698555,0.45289862155914307,-0.3287762403488159,0.32856285572052,-0.2653343975543976,0.37370121479034424,-0.11805111914873123,0.2897960841655731,-0.2985180616378784,-0.4826066195964813,0.23797555267810822,-0.10583462566137314,0.4824991226196289,0.17503923177719116,0.016069982200860977,-0.36661821603775024,-0.14726270735263824,0.3388436734676361,-0.15587389469146729,0.39047688245773315,0.006666240282356739,-0.380641371011734,-0.11183711141347885,0.1989600509405136,-0.22277392446994781,-0.18474145233631134,-0.06711957603693008,-0.20322610437870026,0.007890610955655575,-0.03953861445188522,-0.23342938721179962,-0.07916233688592911,0.3234204053878784,0.37760916352272034,-0.3303377330303192,0.4063369035720825,-0.1916799694299698,0.1366553157567978,-0.3609113097190857,0.214351624250412,-0.2780245542526245,-0.40754562616348267,-0.12921199202537537,0.2996542155742645,0.1823091208934784,-0.399686336517334,0.24695467948913574,0.2850274443626404,-0.18848095834255219,-0.04974905028939247,0.44703590869903564,0.046494364738464355,0.33372175693511963,0.3064601421356201,-0.004366036504507065,-0.3345751464366913,-0.45957934856414795,-0.09245239198207855,0.37614771723747253,0.4276525378227234,-0.4761207699775696,0.4717852473258972,0.4523259103298187,-0.3513459861278534,-0.24602551758289337,-0.3690590560436249,-0.4303700923919678,-0.45407313108444214,0.39137300848960876,-0.42815732955932617,-0.4775322377681732,-0.30332672595977783,-0.31322523951530457,-0.4624229073524475,0.36996349692344666,-0.4023696184158325,0.3407265543937683,-0.4806406497955322,0.17820551991462708,-0.31441476941108704,0.2586599588394165,-0.0766984224319458,-0.43346405029296875,0.339092493057251,-0.07368064671754837,0.3336271643638611,-0.2630775272846222,-0.3755054473876953,0.11991417407989502,-0.40787985920906067,-0.17001624405384064,0.4566783607006073,-0.23811309039592743,0.278833270072937,0.4614802896976471,0.37956640124320984,0.38549360632896423,-0.03810552880167961,0.30261102318763733,-0.31625404953956604,-0.4989621937274933,0.3021002411842346,-0.1739739328622818,-0.2931795120239258,0.0180828720331192,-0.42101043462753296,-0.017183322459459305,0.3381316661834717,-0.03973165154457092,-0.3534504473209381,-0.4475895166397095,0.34750911593437195,-0.24413810670375824,0.12741515040397644,0.03438302502036095,-0.2822801172733307,-0.21144546568393707,0.2221842110157013,0.17242726683616638,0.2507663071155548,-0.28665533661842346,-0.43185850977897644,-0.1225743442773819,-0.0882357731461525,-0.1611471027135849,-0.21623805165290833,-0.419352650642395,-0.2778961956501007,-0.04635569080710411,0.20124304294586182,-0.0033788590226322412,0.3523310124874115,-0.26197898387908936,-0.19317102432250977,0.19160020351409912,0.1492476463317871,-0.18972694873809814,0.01609385386109352,0.10047779977321625,-0.32193875312805176,0.024434903636574745,0.0896645188331604,-0.38698577880859375,0.42205706238746643,-0.4255619943141937,0.17638003826141357,0.23651163280010223,-0.10858951508998871,-0.14612293243408203,0.4640830457210541,0.13841353356838226,0.06787136197090149,0.3653860092163086,0.3081134259700775,-0.2671157121658325,-0.3283523917198181,0.2178031951189041,0.23643766343593597,-0.2936044931411743,0.4021665155887604,-0.008992024697363377,0.32397690415382385,0.08862674236297607,0.4981052577495575,0.3902475833892822,0.35016414523124695,-0.4933798909187317,0.1405852884054184,-0.3016841411590576,-0.44098523259162903,0.48426738381385803,0.09013737738132477,0.2866831123828888,-0.09647222608327866,0.17326143383979797,-0.3116416335105896,0.31858161091804504,0.07528500258922577,0.1784980595111847,0.28074946999549866,-0.35936108231544495,-0.32754188776016235,-0.24369244277477264,-0.28322431445121765,0.29943281412124634,-0.3436785340309143,0.43445122241973877,-0.41695931553840637,0.4954341948032379,-0.4664488732814789,0.4208733141422272,0.21590076386928558,0.21227885782718658,0.40728968381881714,0.2541636824607849,0.15632614493370056,0.21086180210113525,-0.29727455973625183,0.23179514706134796,-0.11500737071037292,0.02901248075067997,-0.16695284843444824,0.1545495092868805,-0.447363942861557,0.41469624638557434,-0.1281280368566513,0.1535075306892395,-0.05767557770013809,-0.009630268439650536,0.47697189450263977,-0.49442604184150696,-0.025387926027178764,0.2919926941394806,0.17356671392917633,-0.35080352425575256,0.07656632363796234,-0.22887873649597168,0.4403558671474457,-0.2877882719039917,0.35769397020339966,0.4170566499233246,0.45583251118659973,-0.44081196188926697,0.2738554775714874,0.24734507501125336,-0.0588829480111599,0.36057788133621216,-0.3015616536140442,0.41585761308670044,-0.33197224140167236,0.3818223178386688,-0.42025530338287354,-0.21231749653816223,0.25103574991226196,0.42085257172584534,0.3323962688446045,-0.3898765742778778,0.1778738647699356,-0.2613913416862488,-0.3752855658531189,0.4910740852355957,0.12141831964254379,0.1453322321176529,-0.20890852808952332,0.4727061688899994,0.36446261405944824,0.127727210521698,-0.3222229480743408,0.4951959550380707,-0.44209760427474976,0.3464961647987366,-0.33042770624160767,0.3005037307739258,0.24626213312149048,0.4867906868457794,0.2670035660266876,-0.27825915813446045,0.45568060874938965,0.15603236854076385,0.34442079067230225,-0.3699795603752136,-0.04021725058555603,0.048422276973724365,-0.18134814500808716,-0.4643506407737732,0.20659703016281128,-0.12204938381910324,0.4035959541797638,0.060185037553310394,-0.41864195466041565,0.05749000608921051,0.4530569612979889,0.03661182150244713,0.137177973985672,0.06697684526443481,-0.11983117461204529,0.0311538428068161,0.47973373532295227,-0.035300225019454956,-0.3928844630718231,0.29229339957237244,0.1582803875207901,0.07461616396903992,-0.49834731221199036,0.11112050712108612,0.38640162348747253,0.49134665727615356,-0.2554704248905182,-0.36198660731315613,0.17240703105926514,-0.3266027271747589,0.1596956104040146,0.33923760056495667,0.0244447011500597,-0.13197684288024902,0.3428894877433777,0.47432324290275574,0.12469099462032318,-0.23184837400913239,-0.21086323261260986,0.3167334198951721,0.049472276121377945,-0.48535987734794617,0.08531559258699417,-0.03680803254246712,0.20498058199882507,0.03765979781746864,-0.239602729678154,0.3307656943798065,0.1508626788854599,-0.040412433445453644,-0.37339621782302856,-0.15179544687271118,0.3226775527000427,0.08297750353813171,0.428396999835968,-0.06279095262289047,-0.028436284512281418,-0.4391792416572571,0.18148857355117798,0.4289640784263611,-0.15062017738819122,0.05902450531721115,0.2240290343761444,-0.2641305923461914,-0.3783785402774811,-0.1323706954717636,0.32920971512794495,0.34329789876937866,-0.12499707192182541,-0.4909157156944275,-0.32898834347724915,-0.2858944833278656,0.18588748574256897,-0.19262859225273132,-0.32398277521133423,0.04639686271548271,-0.4769771695137024,-0.47253236174583435,0.07985442131757736,0.02513648010790348,0.4381864070892334,0.14163997769355774,0.49493691325187683,-0.39081233739852905,-0.28280937671661377,-0.4769197404384613,0.29278114438056946,0.22582732141017914,-0.12223309278488159,0.3408813178539276,-0.4063889980316162,0.438027560710907,-0.020174279808998108,0.42073768377304077,-0.39627835154533386,0.01932704448699951,0.32728129625320435,0.1087576374411583,0.11925308406352997,-0.16410121321678162,0.47995680570602417,0.26004481315612793,0.3415946364402771,-0.04095776006579399,0.16421815752983093,0.40054354071617126,0.47749999165534973,-0.026437735185027122,-0.4822176694869995,-0.17892953753471375,-0.332756370306015,-0.23765568435192108,-0.17267896234989166]},{"type":"f32","elements":[-0.15702946484088898,-0.33116474747657776,-0.18232080340385437,0.057421762496232986,-0.15408985316753387,0.02863413095474243,-0.20130178332328796,-0.44337198138237,-0.2366502285003662,-0.04788319393992424,0.14109818637371063,0.2946435511112213,-0.20270982384681702,0.43288668990135193,-0.204349547624588,-0.2892882525920868,-0.11886966973543167,0.2045811265707016,0.030063962563872337,-0.42619210481643677,-0.102299764752388,0.1886141151189804,-0.13947179913520813,0.04992220178246498,0.2483641505241394,0.22230689227581024,0.4171287715435028,0.3903385400772095,-0.4248785376548767,-0.4461502134799957,0.06978867202997208,0.4053819179534912,0.4134965240955353,-0.49346476793289185,-0.1458648294210434,-0.13763347268104553,0.4851740002632141,0.060206878930330276,-0.363957017660141,0.24438144266605377,0.11287404596805573,-0.015867725014686584,0.48370885848999023,0.08139392733573914,0.2256997525691986,-0.3086984157562256,0.3249334990978241,0.008887708187103271,-0.10166545957326889,0.11899784952402115,-0.12056583911180496,0.10033519566059113,-0.1817556619644165,0.17338073253631592,-0.16971269249916077,0.18794791400432587,-0.4570932388305664,-0.4930866062641144,-0.0276406928896904,-0.42187774181365967,0.2432282716035843,-0.12280770391225815,-0.028478432446718216,-0.39114904403686523,0.46870118379592896,0.3297598361968994,0.4977354407310486,0.40487295389175415,0.307614803314209,0.40624961256980896,0.2013835906982422,-0.2616795599460602,0.35449910163879395,0.47411373257637024,-0.26110920310020447,0.27892160415649414,-0.13616852462291718,0.38168495893478394,0.44140180945396423,-0.4780746102333069,0.42151039838790894,0.4438355267047882,0.48714500665664673,0.22006553411483765,0.2614533603191376,-0.18875843286514282,-0.17492368817329407,-0.46851781010627747,0.45180290937423706,0.27231714129447937,-0.09401246905326843,0.03907477483153343,-0.3011832535266876,-0.27511081099510193,-0.1559751331806183,0.13140803575515747,0.3080188035964966,-0.4891406297683716,0.0018916309345513582,0.15418267250061035,-0.2137862890958786,-0.4413978159427643,-0.3928165137767792,0.32190513610839844,-0.17524424195289612,0.34988436102867126,-0.2210470288991928,0.30704039335250854,0.17402252554893494,-0.10066230595111847,-0.16051189601421356,0.4101272225379944,0.16420407593250275,-0.1341320276260376,-0.40185362100601196,0.21093308925628662,0.051573969423770905,0.07824474573135376,-0.4861800968647003,-0.25473377108573914,0.09230843186378479,0.4556584060192108,0.07440458238124847,-0.14596092700958252,-0.26397427916526794,-0.1816367208957672,0.2635285258293152,-0.17191535234451294,0.15948344767093658,0.050730232149362564,-0.2485497146844864,0.18067455291748047,-0.12396670132875443,-0.03416850417852402,0.17839333415031433,-0.33085140585899353,-0.31765297055244446,-0.33334115147590637,-0.45917949080467224,-0.05799489468336105,-0.214351087808609,0.3913804888725281,0.45270317792892456,-0.49710404872894287,-0.14502876996994019,0.452798455953598,0.170547753572464,0.4410932958126068,-0.28765740990638733,0.31671205163002014,0.36814722418785095,-0.44758549332618713,0.05926131829619408,0.33130645751953125,0.17016296088695526,0.3189231753349304,0.4903298020362854,0.36722952127456665,0.22002163529396057,0.20154446363449097,-0.40377873182296753,0.10962983220815659,-0.27825620770454407,0.11206632107496262,0.25585806369781494,-0.4284082353115082,-0.3796071708202362,-0.38513004779815674,-0.48966342210769653,-0.4315546154975891,-0.1190810352563858,0.30493879318237305,0.00042842142283916473,-0.4273715019226074,-0.003886304097250104,-0.11123677343130112,0.12450387328863144,0.49759751558303833,-0.15350253880023956,-0.36793753504753113,0.09062381833791733,-0.28668758273124695,0.06327654421329498,0.16711847484111786,-0.07477676123380661,0.3941451907157898,0.08978146314620972,-0.2497505098581314,0.3729875683784485,-0.10712908208370209,-0.14666308462619781,-0.08447480946779251,0.3026271164417267,-0.1720380336046219,-0.07850295305252075,-0.3588601350784302,0.35406145453453064,0.23790182173252106,-0.4953034818172455,0.19968977570533752,0.32286855578422546,-0.38223057985305786,0.2626112997531891,-0.47058844566345215,0.3945257365703583,-0.433012992143631,-0.48115792870521545,-0.031325336545705795,0.024227235466241837,0.46911200881004333,0.388165682554245,0.08875784277915955,0.3384581208229065,-0.3340105414390564,-0.10111971199512482,-0.1523343324661255,-0.12806984782218933,-0.414667010307312,0.05551411956548691,0.2108006775379181,-0.36011481285095215,-0.2823186218738556,0.05195098742842674,0.21011632680892944,0.4610503315925598,-0.18221786618232727,-0.0062591880559921265,0.34164372086524963,0.02334655448794365,-0.3442458510398865,-0.2533858120441437,0.3921988010406494,0.235530287027359,-0.4321202337741852,-0.4947924315929413,-0.38035744428634644,0.0338376984000206,0.3531832695007324,-0.41169118881225586,0.043434519320726395,0.41060367226600647,-0.2867797017097473,0.43418005108833313,0.32682928442955017,-0.15044941008090973,-0.24935860931873322,-0.10205007344484329,-0.07170370221138,-0.1879342645406723,0.3763418197631836,-0.1272462010383606,-0.28751063346862793,-0.021467098966240883,0.213120698928833,0.3944249153137207,-0.14429160952568054,0.3695625364780426,-0.35362178087234497,0.284138947725296,-0.20154783129692078,0.143554225564003,0.06495682895183563,-0.35537010431289673,-0.3789156377315521,0.26556339859962463,0.3092571198940277,0.4737163186073303,-0.3330624997615814,-0.26553672552108765,-0.4458547532558441,-0.03569198027253151,-0.03746132552623749,-0.35788825154304504,-0.11942926049232483,-0.01537761278450489,0.1212274506688118,-0.24765218794345856,0.0486406609416008,-0.004551374353468418,0.16128380596637726,-0.30301737785339355,0.22414501011371613,-0.4319281280040741,0.20059587061405182,0.149605393409729,0.4750196933746338,-0.42535942792892456,-0.29902470111846924,-0.12617065012454987,-0.22800347208976746,0.49624764919281006,-0.2785826623439789,0.15971919894218445,-0.28080204129219055,-0.0314425490796566,0.03255656734108925,-0.10418534278869629,-0.1889919489622116,-0.31940436363220215,-0.09853887557983398,-0.05117439106106758,0.07073607295751572,-0.021681878715753555,-0.012912509962916374,0.3506182134151459,0.4323543310165405,0.01716996543109417,-0.4911850392818451,-0.3567008972167969,-0.23096038401126862,0.05762793868780136,0.2247028797864914,0.2140112966299057,0.25606435537338257,0.23190030455589294,0.4853622615337372,0.29371851682662964,-0.28997042775154114,-0.3834262788295746,0.3039522171020508,-0.1442514955997467,-0.025434667244553566,-0.13953447341918945,0.18666109442710876,-0.4803490936756134,0.39648470282554626,-0.36128515005111694,0.35249391198158264,0.31013473868370056,0.14675524830818176,-0.3925779163837433,-0.3309077322483063,-0.4762088656425476,-0.12879754602909088,-0.47338780760765076,0.1349005550146103,-0.2301262468099594,0.18336768448352814,-0.1044572964310646,-0.2263142615556717,0.44345736503601074,0.30689314007759094,0.3968842029571533,-0.14786112308502197,-0.038386452943086624,0.0985594317317009,-0.02059352770447731,-0.4166986346244812,0.30250489711761475,-0.4806187152862549,0.43630483746528625,0.15194806456565857,0.03666454553604126,-0.052119288593530655,0.05583929270505905,0.4487842321395874,-0.14962957799434662,-0.04247639700770378,-0.17340628802776337,0.42596954107284546,0.26219847798347473,-0.007143454626202583,0.24396638572216034,0.30669689178466797,0.191618412733078,0.1293378621339798,-0.009075133129954338,0.24940571188926697,-0.16079828143119812,0.07017375528812408,-0.3889243006706238,0.038539912551641464,0.4176250696182251,0.38097918033599854,0.4001930058002472,0.2834194004535675,0.47344744205474854,-0.08490202575922012,-0.2569887340068817,0.04743919149041176,-0.17490656673908234,0.1508331447839737,-0.3125588595867157,0.44654521346092224,-0.014918826520442963,0.2800898253917694,-0.423296719789505,-0.31279483437538147,-0.33982160687446594,0.09535647928714752,0.16310907900333405,-0.27837562561035156,-0.2822512984275818,-0.45837029814720154,0.3764302730560303,0.1863519698381424,0.07792194187641144,0.18772058188915253,-0.46221205592155457,0.05555913597345352,-0.22839713096618652,-0.19087685644626617,-0.3790578544139862,0.24994759261608124,0.12896671891212463,-0.05400986596941948,-0.2168937474489212,0.22334282100200653,0.34275102615356445,0.49254143238067627,0.37536293268203735,-0.001657943008467555,-0.15352241694927216,-0.2165396362543106,-0.43450063467025757,-0.33058643341064453,0.186568021774292,-0.3127050995826721,-0.09651359915733337,-0.3082030117511749,0.11080367118120193,0.2481304109096527,0.12648150324821472,0.4892953932285309,-0.37498167157173157,-0.26285067200660706,-0.1859596222639084,0.12681064009666443,0.4273824095726013,-0.3324624300003052,0.31841641664505005,-0.3254924714565277,0.04514671117067337,0.4062696397304535,-0.2544126808643341,0.37140214443206787,0.050560399889945984,-0.11683232337236404,-0.338637113571167,0.40645211935043335,0.420928418636322,0.3661508560180664,0.3569614291191101,-0.14251326024532318,-0.44619032740592957,0.3933524191379547,-0.2769545316696167,0.03437774255871773,0.3943232595920563,-0.4345962107181549,-0.06644435971975327,0.4352383017539978,-0.31356918811798096,0.2887023687362671,-0.4956815838813782,-0.35174641013145447,-0.4566034972667694,0.3799629211425781,0.1886340230703354,0.39027082920074463,-0.08241624385118484,0.38542741537094116,0.23775380849838257,-0.4249087870121002,0.42903366684913635,0.26031866669654846,0.05765771493315697,0.42007389664649963,-0.3473992347717285,-0.361083060503006,0.41917964816093445,-0.29546040296554565,-0.47246864438056946,0.3450082540512085,0.4023192822933197,-0.19681142270565033,-0.11754992604255676,-0.361211895942688,-0.4730530083179474,0.10766690224409103,-0.25999245047569275,-0.19160176813602448,0.0300485510379076,-0.2358134388923645,-0.01363104023039341,-0.11171695590019226,0.43494969606399536,-0.11655396223068237,0.1670471578836441,0.3154415190219879,0.3980538845062256,0.36957281827926636,0.14922361075878143,0.07319532334804535,0.4833568036556244,-0.2523871958255768,-0.0731569230556488,-0.488082617521286,-0.3234451711177826,-0.37561747431755066,0.0465746633708477,0.08762983977794647,-0.4214397668838501,0.013564024120569229,-0.24982571601867676,-0.1927432417869568,-0.25310996174812317,-0.15942415595054626,0.08106230199337006,0.46137088537216187,-0.4844604730606079,0.19391585886478424,0.42555591464042664,-0.08269791305065155,-0.4078981578350067,-0.044204629957675934,-0.1347067654132843,-0.2969600558280945,-0.058480601757764816,0.3557189702987671,0.030156230553984642,0.3536325991153717,-0.41634848713874817,-0.30863699316978455,-0.16868939995765686,0.15282884240150452,0.1796082854270935,-0.30562928318977356,-0.20228540897369385,-0.2881784737110138,0.36458131670951843,-0.2906735837459564,0.1766739785671234,0.1793469488620758,0.05968359857797623,0.4503624439239502,-0.05919389799237251,-0.16095635294914246,-0.1965046375989914,-0.16521528363227844,-0.40059006214141846,0.06295870244503021,-0.40483254194259644,0.31742870807647705,-0.17737756669521332,0.4702621102333069,-0.3975813388824463,-0.47417163848876953,-0.2788906395435333,-0.31387561559677124,-0.4699571430683136,0.28578314185142517,-0.17170022428035736,0.10215367376804352,-0.404751718044281,-0.3619072139263153,-0.07521019130945206,-0.3369085192680359,0.20584768056869507,0.2659913897514343,0.42423194646835327,0.13936735689640045,0.3286382257938385,0.31430304050445557,-0.4264172613620758,0.32050758600234985,0.220867320895195,0.12927931547164917,0.14860866963863373,-0.049411386251449585,0.15949440002441406,0.3274841606616974,0.2819823622703552,-0.48683199286460876,-0.2955641746520996,0.45705002546310425,0.05752503126859665,0.14259889721870422,-0.06642327457666397,0.19788460433483124,0.20201264321804047,0.0887790247797966,0.0012661386281251907,0.02235686592757702,0.3368251323699951,-0.12760725617408752,-0.47273507714271545,-0.34070661664009094,0.24921686947345734,-0.22601774334907532,-0.32947468757629395,-0.294249027967453,0.36231836676597595,-0.08353736251592636,0.2893957793712616,-0.08843639492988586,-0.2027706503868103,-0.2923603653907776,-0.12819713354110718,0.4886642396450043,0.4271848499774933,-0.3069259822368622,-0.030692659318447113,-0.38971608877182007,0.4487157464027405,0.20975935459136963,0.4204627275466919,-0.2498169243335724,-0.12576976418495178,-0.18735699355602264,0.2862386405467987,0.1615528017282486,0.012478424236178398,-0.025566769763827324,-0.14808860421180725,0.22197836637496948,0.19365562498569489,-0.2484254390001297,-0.4394031763076782,-0.4834859073162079,0.003928792662918568,-0.272568941116333,0.42935994267463684,-0.3617890477180481,-0.2728321850299835,-0.20912787318229675,-0.011716839857399464,-0.2385384738445282,0.09771490097045898,0.010127900168299675,-0.41050973534584045,0.3437528610229492,0.3978174328804016,0.35698407888412476,-0.38360121846199036,0.07184584438800812,-0.49546265602111816,-0.1334230899810791,-0.433625727891922,0.26072874665260315,0.4968450665473938,0.04181639850139618,-0.3553568124771118,0.02154015190899372,0.2372044026851654,-0.15068092942237854,-0.3612060248851776,-0.1097051277756691,-0.11343753337860107,-0.2556603252887726,-0.32748836278915405,-0.132185161113739,0.3747560679912567,0.27002209424972534,0.04816827178001404,-0.13792681694030762,0.13090123236179352,-0.32198888063430786,-0.47866618633270264,-0.1832600086927414,-0.2968425750732422,0.22978147864341736,-0.23502251505851746,-0.10737967491149902,-0.3375561833381653,0.28797096014022827,0.3564566671848297,-0.06661876291036606,0.4869633913040161,0.33478066325187683,-0.20863689482212067,-0.06347140669822693,0.41873350739479065,0.326068639755249,-0.176191508769989,-0.06828368455171585,-0.16644100844860077,0.49563276767730713,0.22543905675411224,0.030881378799676895,0.2673256993293762,-0.49947911500930786,-0.2547248601913452,0.26433539390563965,0.1102682426571846,-0.37913963198661804,-0.4299111068248749,0.13332538306713104,0.16417649388313293,-0.28898847103118896,-0.11803179234266281,0.19956384599208832,0.08855165541172028,-0.2495115101337433,-0.2508326470851898,0.20688992738723755,0.2893464267253876,0.0777290090918541,0.3627719581127167,-0.0873035117983818,-0.4284486770629883,-0.3117983341217041,-0.3386395275592804,-0.054081857204437256,-0.37799307703971863,-0.18640415370464325,0.0681895837187767,0.21776680648326874,-0.4134060740470886,-0.3669012784957886,0.06209282577037811,-0.25022560358047485,0.08412174135446548,-0.014868869446218014,0.21807804703712463,0.4994775354862213,-0.21781933307647705,-0.25402265787124634,0.049225762486457825,0.2567174732685089,-0.004959080833941698,-0.27153852581977844,0.22032545506954193,0.37690508365631104,-0.27851754426956177,-0.10843689739704132,0.28155210614204407,-0.2610972821712494,0.23610886931419373,-0.47485485672950745,0.3888779282569885,-0.19812840223312378,0.3665189743041992,-0.0953550934791565,0.27777713537216187,0.44965651631355286,-0.16589008271694183,0.41058051586151123,-0.19231458008289337,0.37880390882492065,0.2632165849208832,-0.09167580306529999,0.23616431653499603,-0.3180502951145172,-0.14194349944591522,-0.22152170538902283,0.39889830350875854,0.052233148366212845,-0.03811169043183327,0.3178367018699646,-0.2403986155986786,-0.16835078597068787,0.3343968987464905,-0.46841156482696533,-0.4121509790420532,-0.3146233856678009,0.4108388125896454,-0.30306634306907654,-0.26307451725006104,0.4435676336288452,0.2585957646369934,0.3652462661266327,-0.4003363847732544,0.02129649743437767,0.000012567499652504921,-0.4767758548259735,-0.33873891830444336,-0.2305295765399933,0.2283630669116974,0.48887714743614197,-0.2782093286514282,-0.16694843769073486,0.3562246859073639,0.21186105906963348,-0.4052520990371704,-0.26216986775398254,0.4975859522819519,0.4107986092567444,0.1437058001756668,0.45618271827697754,0.08161108940839767,-0.3782382309436798,-0.4627332389354706,0.4024580717086792]},{"type":"f32","elements":[-0.21057091653347015,-0.41793662309646606,0.0924014151096344,-0.24171055853366852,-0.265779584646225,0.38241270184516907,-0.4142410159111023,-0.11953913420438766,-0.2915738821029663,0.315909206867218,0.0705888494849205,0.01998082548379898,0.3652070164680481,-0.4524911642074585,0.1462588906288147,0.2882337272167206,0.4366616904735565,0.028012949973344803,0.21729953587055206,-0.3404480516910553,0.28243616223335266,0.47692182660102844,-0.4242428243160248,0.34264421463012695,0.2518977224826813,-0.25671643018722534,-0.26802563667297363,0.3984696567058563,-0.2066330462694168,-0.3171897530555725,-0.26590824127197266,-0.30890312790870667,0.28395190834999084,0.4068315923213959,-0.0001860682386904955,0.03743334114551544,-0.06920403987169266,-0.2803201377391815,-0.20509855449199677,0.08990401029586792,0.16781306266784668,-0.48849618434906006,0.02160472981631756,-0.20131905376911163,-0.0037741526030004025,-0.1741160750389099,0.0360068678855896,0.4095107614994049,0.4390256404876709,0.040995314717292786,-0.12256511300802231,0.15293028950691223,0.24173149466514587,-0.22316671907901764,-0.4381733536720276,-0.27512240409851074,0.18290768563747406,-0.1806018203496933,0.017950914800167084,0.145048588514328,0.004683639854192734,0.0030366003047674894,-0.14310991764068604,-0.08380935341119766,-0.35679155588150024,0.2978658676147461,0.3546155095100403,0.48403504490852356,-0.008375696837902069,-0.18245728313922882,0.22614994645118713,0.0917191356420517,-0.485045462846756,0.47005027532577515,-0.1405305713415146,0.3958154320716858,0.38318103551864624,0.3134872317314148,-0.10854046791791916,-0.32682520151138306,0.07569874078035355,-0.05378350615501404,-0.1602572649717331,0.053866155445575714,-0.14660991728305817,0.2405468225479126,0.27488386631011963,-0.3171612620353699,0.20816867053508759,-0.14711907505989075,-0.053008995950222015,-0.257328599691391,-0.3939473628997803,-0.37376275658607483,0.11017124354839325,0.4744563102722168,-0.2117461860179901,-0.3546028137207031,-0.042068902403116226,-0.08695302903652191,-0.046047259122133255,0.07232765853404999,-0.4625554084777832,0.006918294820934534,0.456061452627182,0.13627351820468903,-0.3536597490310669,0.027406765148043633,0.11636531352996826,-0.3866287171840668,0.40874266624450684,-0.4877297282218933,-0.009541140869259834,0.48010265827178955,0.2539220154285431,0.3950093984603882,0.2923828363418579,0.31074368953704834,-0.06502696871757507,0.4603462219238281,0.42251938581466675,0.1504354178905487,0.3099980354309082,0.0133611299097538,0.29891830682754517,0.48117414116859436,0.4336293339729309,0.24294297397136688,-0.4626728892326355,-0.20373909175395966,-0.3977798819541931,0.3336024284362793,0.2790430784225464,0.390170693397522,-0.2585234045982361,0.13794317841529846,-0.08381692320108414,0.1346321702003479,0.3250272572040558,0.10679791867733002,0.039234839379787445,-0.21909281611442566,-0.026341471821069717,-0.11858991533517838,0.3350869417190552,0.07965190708637238,-0.05287503823637962,-0.40394920110702515,-0.1422395557165146,0.020031040534377098,-0.49982526898384094,-0.40647608041763306,0.4721486568450928,0.22976389527320862,0.37334805727005005,-0.1448853760957718,0.1870470643043518,0.1474560797214508,-0.45714065432548523,0.33885452151298523,-0.2823064923286438,-0.4168642461299896,0.2510368227958679,0.04630063474178314,-0.28156062960624695,-0.39286747574806213,-0.4413832128047943,-0.05401508882641792,-0.4214153587818146,0.3110180199146271,-0.29832038283348083,-0.2703000605106354,-0.4801933169364929,-0.11067701876163483,0.4185861051082611,0.028819898143410683,-0.07256627827882767,0.4264698624610901,0.027629051357507706,-0.07642453163862228,0.39439889788627625,-0.30019792914390564,-0.3145624101161957,-0.2484331727027893,-0.07624424248933792,0.01764061488211155,-0.4559370279312134,-0.4861179292201996,-0.07129458338022232,0.4193270206451416,0.03292784467339516,-0.24486568570137024,-0.49103018641471863,0.1644487828016281,0.0032705029007047415,0.2198907732963562,0.44614505767822266,0.021696537733078003,-0.11317715793848038,0.2624678611755371,-0.18781524896621704,0.4949864447116852,-0.21485260128974915,0.03781437128782272,0.06140175834298134,-0.21331797540187836,0.07587636262178421,-0.20874255895614624,-0.01239107921719551,-0.4893513023853302,0.0931728258728981,-0.09241537749767303,0.07422664016485214,0.2327353060245514,-0.20854826271533966,0.1296023726463318,-0.21355479955673218,-0.1317359060049057,0.2171056717634201,0.4428573250770569,-0.28343135118484497,-0.30203530192375183,-0.2540658116340637,-0.3299633860588074,-0.08269249647855759,-0.4446330964565277,-0.020141834393143654,0.2684395909309387,-0.10270817577838898,0.1474015861749649,-0.004125384613871574,0.2480059564113617,-0.08722953498363495,-0.24243450164794922,-0.4551198184490204,-0.0646582692861557,0.3912530243396759,0.15913787484169006,0.30032482743263245,0.046658266335725784,-0.1752452403306961,-0.1454467624425888,0.47255396842956543,0.38228896260261536,-0.45302000641822815,0.24814946949481964,0.4869493544101715,0.15020734071731567,-0.06339345872402191,0.33358895778656006,-0.4712953567504883,0.035356555134058,-0.4612787663936615,0.0313316248357296,-0.030963998287916183,-0.473246306180954,-0.46775326132774353,0.2861880660057068,0.4449273645877838,-0.3231663405895233,0.2748347520828247,0.44884732365608215,-0.2550075948238373,-0.1978427767753601,0.060304030776023865,0.34726065397262573,-0.1223626360297203,-0.11452101171016693,0.07105491310358047,-0.15765322744846344,-0.4613184332847595,-0.3385210335254669,0.06421425938606262,-0.2708914279937744,0.30206766724586487,0.421045184135437,0.48016148805618286,-0.05298306792974472,0.3903285264968872,0.43482884764671326,-0.38701969385147095,0.2554124593734741,0.2207147479057312,0.010307654738426208,-0.3762523829936981,-0.08281596750020981,-0.1825101375579834,0.26796796917915344,-0.2930392026901245,-0.4792901277542114,-0.24349446594715118,-0.3231453597545624,0.15209265053272247,-0.4717593789100647,-0.02947933040559292,-0.2506011426448822,0.13411831855773926,0.47750556468963623,-0.16078782081604004,-0.022844213992357254,-0.1293238401412964,-0.34077873826026917,0.05978287383913994,0.20169129967689514,-0.001340898685157299,0.07803240418434143,-0.3418043851852417,-0.2943984568119049,0.4104751944541931,-0.15278786420822144,0.3486122488975525,0.3862221837043762,0.25468212366104126,0.11025090515613556,-0.07153846323490143,-0.20753870904445648,0.18964192271232605,0.20774999260902405,-0.49011069536209106,-0.22419483959674835,0.4992679953575134,0.20752660930156708,-0.293952614068985,0.2166544646024704,0.42556822299957275,0.1967877596616745,-0.34869593381881714,-0.09249284863471985,0.1350487768650055,-0.45471301674842834,0.33300748467445374,-0.027414660900831223,-0.4222007691860199,0.13883936405181885,0.12727096676826477,0.2622559666633606,0.09166280925273895,-0.23504500091075897,-0.0942651629447937,0.35684940218925476,0.43095719814300537,0.44433414936065674,-0.0803830698132515,0.06992627680301666,-0.4469832479953766,0.23724600672721863,0.368964821100235,-0.07041851431131363,-0.22135186195373535,0.1151319369673729,-0.18596945703029633,-0.31233689188957214,-0.05069870874285698,-0.37423649430274963,-0.21347159147262573,-0.151207834482193,-0.39865732192993164,0.04267222434282303,-0.17097167670726776,0.22866033017635345,-0.20363271236419678,0.2823226749897003,0.39939814805984497,0.4583619236946106,-0.2334713637828827,0.4388422966003418,-0.28805863857269287,-0.23969852924346924,0.17704668641090393,0.07878004014492035,-0.2319134920835495,-0.2741101384162903,-0.16537001729011536,0.36006414890289307,-0.19585268199443817,-0.44306033849716187,-0.3520212173461914,0.13326750695705414,0.015413220971822739,-0.11714952439069748,0.2571631968021393,-0.2696228623390198,0.2447780817747116,-0.34494855999946594,0.46494296193122864,-0.36523112654685974,-0.37510159611701965,-0.4184437096118927,-0.48487550020217896,-0.06919195502996445,-0.4528748095035553,0.006648935377597809,-0.2842252850532532,0.30331429839134216,-0.46958741545677185,0.3031921982765198,-0.1931569129228592,-0.4208979606628418,0.15444116294384003,-0.2869609594345093,-0.04664074257016182,0.26935088634490967,-0.36009126901626587,0.359874963760376,-0.008752604946494102,-0.0673910602927208,-0.11648713797330856,0.4202021360397339,0.48498913645744324,-0.009344516322016716,-0.1949751377105713,0.4201001822948456,-0.18526871502399445,-0.22943711280822754,0.3034501075744629,-0.016863925382494926,-0.34944525361061096,0.3497113585472107,-0.3578569293022156,0.1267755925655365,-0.24905045330524445,0.13879388570785522,-0.2842337489128113,0.3784788250923157,0.4532327651977539,-0.3432196378707886,-0.2135629653930664,-0.34507113695144653,-0.0865488052368164,-0.004146222956478596,0.2684762179851532,0.37889426946640015,-0.22757993638515472,-0.33654001355171204,0.33842217922210693,-0.26803746819496155,0.2648574709892273,0.4546091854572296,-0.48524585366249084,-0.3510795533657074,0.3100338578224182,0.21303077042102814,0.09716489166021347,0.035478897392749786,-0.28487831354141235,0.12344224750995636,0.32638877630233765,-0.49394819140434265,0.18130020797252655,0.29832923412323,0.32779407501220703,-0.4848100543022156,-0.4119284152984619,-0.18241430819034576,0.4169471859931946,-0.30752238631248474,-0.12394028156995773,-0.3414180874824524,-0.3774338364601135,-0.22775013744831085,0.3046262860298157,0.1719323992729187,0.17928658425807953,-0.06327439099550247,0.11244216561317444,0.09678374230861664,-0.0014700950123369694,0.4604317843914032,-0.41669008135795593,0.48091623187065125,-0.07600737363100052,0.4437344968318939,-0.24126507341861725,-0.37779417634010315,0.03556888923048973,0.1480516940355301,0.2668217718601227,-0.16222324967384338,0.3359106779098511,-0.2848731577396393,-0.06968476623296738,0.15011054277420044,-0.17304842174053192,-0.07384055852890015,-0.486358642578125,0.283822238445282,-0.1195211187005043,0.4666702449321747,-0.00579505180940032,0.48447275161743164,0.4044763147830963,0.47268855571746826,0.14691944420337677,0.012999504804611206,-0.4378643333911896,-0.46075353026390076,0.34349754452705383,-0.13578182458877563,-0.19760748744010925,-0.37517380714416504,0.3681862950325012,0.010889132507145405,0.16790997982025146,-0.039791036397218704,0.001070061232894659,0.3563788831233978,-0.2549768090248108,-0.2009444534778595,-0.4353054463863373,-0.3323182463645935,-0.43740034103393555,-0.1980261653661728,0.22556257247924805,0.2795511484146118,0.14869508147239685,0.400124728679657,-0.3287149667739868,-0.4421803653240204,0.07430300861597061,-0.41797682642936707,-0.3207511901855469,0.2749707102775574,-0.38817915320396423,-0.48637473583221436,-0.3483606278896332,0.28179359436035156,-0.36227303743362427,0.32842084765434265,0.2810875177383423,-0.3872743546962738,0.09107421338558197,-0.2824742794036865,-0.49306973814964294,0.03763764724135399,-0.375892698764801,-0.2652488350868225,-0.12414772808551788,0.0722864493727684,0.000905775697901845,-0.02675064466893673,-0.03342006355524063,0.2543323338031769,-0.3649860620498657,0.15989165008068085,-0.39060044288635254,0.13892467319965363,-0.18140310049057007,-0.3433230519294739,0.2232394963502884,-0.1763361394405365,-0.40633511543273926,-0.09430748224258423,0.23283323645591736,0.06059176102280617,0.1907062530517578,-0.49794402718544006,0.4279364049434662,-0.30367955565452576,0.19096650183200836,-0.4547119438648224,0.05855906382203102,0.3388969898223877,0.33792003989219666,-0.06933469325304031,-0.2612510621547699,-0.1221422478556633,-0.3932974636554718,0.39347705245018005,-0.38109055161476135,-0.143551766872406,-0.20217959582805634,-0.3676912486553192,-0.003260605735704303,-0.418606698513031,0.47531142830848694,-0.42320048809051514,0.17082510888576508,-0.08759453147649765,0.23435063660144806,0.002212616614997387,0.23860371112823486,-0.17125104367733002,0.06595243513584137,-0.3516042232513428,-0.10559255629777908,-0.1415824443101883,0.2383704036474228,0.3867458403110504,0.0968247503042221,-0.271409273147583,0.4119797646999359,0.03803087770938873,-0.19889667630195618,0.15157738327980042,0.08136113733053207,0.2876376211643219,-0.04450380057096481,0.11968643218278885,0.16304254531860352,0.4395889937877655,-0.18303412199020386,-0.49798983335494995,0.3363349437713623,-0.23814693093299866,0.003935311455279589,-0.10268834233283997,-0.48110803961753845,-0.2923804819583893,-0.2524383068084717,0.15864819288253784,-0.06462708860635757,-0.15887732803821564,0.21588224172592163,0.4045103192329407,0.154651939868927,-0.16550864279270172,0.08141559362411499,-0.42304810881614685,0.3032910227775574,-0.036568112671375275,0.09304012358188629,-0.20034532248973846,-0.15052096545696259,-0.42005133628845215,-0.03716403618454933,0.19672471284866333,-0.1460016965866089,-0.00910265650600195,0.03577834740281105,0.44411712884902954,-0.42639684677124023,-0.18366989493370056,-0.48053500056266785,0.287544310092926,0.3514131009578705,-0.4727753698825836,0.018494796007871628,0.3595467507839203,-0.11937173455953598,0.46640920639038086,-0.09187774360179901,-0.15408571064472198,-0.17168855667114258,-0.42797020077705383,0.2510372996330261,-0.47070741653442383,-0.12678582966327667,0.2427961826324463,0.39351746439933777,0.2935371696949005,0.2780603766441345,0.043830420821905136,0.19923371076583862,-0.42875903844833374,0.14753350615501404,0.07032427936792374,-0.25348180532455444,-0.2014523446559906,0.20504207909107208,-0.18458408117294312,0.22710135579109192,-0.17696262896060944,0.19703198969364166,-0.34484079480171204,0.3936230540275574,-0.38702645897865295,-0.20850880444049835,-0.28809845447540283,-0.13541057705879211,0.4906660318374634,0.23224414885044098,0.4972749948501587,0.3370182514190674,-0.3664448857307434,-0.4744683802127838,0.2721919119358063,0.035243287682533264,0.08475356549024582,-0.10301796346902847,-0.2689943313598633,-0.34180209040641785,0.009251669049263,-0.35229089856147766,-0.4245639443397522,-0.43609458208084106,0.2946385443210602,-0.3855457007884979,-0.06474801898002625,0.139146625995636,-0.1739412546157837,-0.4062149226665497,0.4104121923446655,0.14618004858493805,-0.33060431480407715,0.4826901853084564,-0.0952509269118309,-0.35853371024131775,0.04074482247233391,0.1420016586780548,-0.013457922264933586,-0.029893752187490463,0.22083410620689392,-0.4187348484992981,-0.44947195053100586,-0.03520240634679794,-0.35684213042259216,0.34807541966438293,-0.1939544528722763,0.4313996136188507,-0.06114434450864792,-0.039562374353408813,-0.4997754395008087,-0.4261014461517334,0.21169432997703552,0.48681992292404175,-0.000601375475525856,0.4291190207004547,-0.36814579367637634,-0.13318277895450592,-0.4174387454986572,-0.4922524392604828,-0.4360881447792053,0.3891964852809906,-0.40627729892730713,-0.4268682897090912,-0.05462602525949478,0.07022877037525177,-0.4755009412765503,-0.13010990619659424,0.4672257900238037,0.4426860213279724,-0.21420252323150635,0.2715936601161957,-0.2908371686935425,0.18750494718551636,0.369844526052475,0.2690364420413971,-0.008268594741821289,-0.24316935241222382,-0.39136263728141785,0.3146290183067322,0.22253991663455963,0.05650991573929787,0.3272306025028229,0.24473118782043457,-0.002028815681114793,0.36686527729034424,-0.23642656207084656,-0.24476049840450287,-0.45242810249328613,-0.45381084084510803,0.04078502207994461,0.02900828793644905,-0.26564350724220276,0.024495024234056473,0.052503738552331924,0.25427186489105225,0.37468820810317993,0.12294153869152069,-0.2984488308429718,0.12163304537534714,0.11435950547456741,0.3778693675994873,0.4808301329612732,-0.15067067742347717,-0.42081496119499207,0.1840466558933258,-0.08406630158424377,0.3877338767051697,-0.35842040181159973,0.45632264018058777,0.23114244639873505,-0.03641263768076897,0.39192232489585876,0.19576303660869598,0.10217706114053726,-0.42988666892051697,-0.25855183601379395,-0.08329051733016968,-0.38344818353652954,-0.25267258286476135,0.04634977504611015,-0.418038547039032,-0.3087240755558014]},{"type":"f32","elements":[0.06536668539047241,-0.22196093201637268,0.20699560642242432,0.0415068082511425,0.37525030970573425,0.023263152688741684,0.3827884793281555,0.32971498370170593,-0.22739778459072113,0.29258492588996887,-0.27309975028038025,-0.3395061194896698,-0.46442773938179016,-0.31656143069267273,-0.0651954859495163,0.13360944390296936,-0.14501255750656128,0.06165102496743202,-0.23304201662540436,-0.027098899707198143,-0.19490237534046173,0.1840624064207077,-0.21765439212322235,-0.3589465320110321,-0.011003784835338593,0.12271536141633987,-0.4414891302585602,0.0030216078739613295,-0.3317619562149048,0.4481024444103241,-0.31358957290649414,0.3632572889328003,-0.05131020396947861,-0.03408979997038841,0.20649360120296478,0.23869891464710236,-0.1507897824048996,-0.038694243878126144,-0.4670107066631317,-0.15116147696971893,-0.3348330557346344,-0.3475662171840668,0.13683989644050598,-0.09768974781036377,-0.4037659764289856,-0.2801147997379303,-0.3399982452392578,-0.19153495132923126,-0.44942420721054077,0.45154911279678345,0.12819060683250427,0.0037819743156433105,0.029154928401112556,0.4845573306083679,-0.317340612411499,-0.15335126221179962,-0.49931246042251587,0.45687049627304077,-0.08662521094083786,0.23640282452106476,0.4193027913570404,-0.2553305923938751,0.19869349896907806,-0.22892171144485474,0.25355207920074463,0.2137916088104248,0.0519414022564888,0.34308093786239624,-0.26705431938171387,-0.1773402839899063,-0.27867868542671204,-0.3304402828216553,-0.2720581293106079,0.405417263507843,0.15199077129364014,0.36748525500297546,0.3777890205383301,0.12160590291023254,0.14058595895767212,0.31083691120147705,-0.4753112494945526,-0.37858903408050537,-0.21606646478176117,0.24800176918506622,-0.04204651713371277,-0.1751396209001541,0.33391955494880676,-0.038311220705509186,0.10271692276000977,-0.006468695588409901,0.12733516097068787,-0.11655411124229431,-0.406031996011734,-0.2832929790019989,0.28496330976486206,0.1677706092596054,-0.276685506105423,0.4290770888328552,-0.20653954148292542,-0.2945975065231323,-0.3770236670970917,-0.4128337800502777,0.08064574003219604,0.4213416278362274,0.12767699360847473,-0.47750324010849,0.2860948145389557,-0.367183655500412,-0.1197085753083229,-0.24575944244861603,-0.3784019947052002,0.31614425778388977,-0.2740916907787323,-0.4489729106426239,-0.41213029623031616,0.05161511152982712,0.21750283241271973,0.19649851322174072,-0.19960357248783112,-0.013991989195346832,-0.2285846471786499,-0.13963578641414642,-0.05761338770389557,-0.1665366291999817,0.33797991275787354,0.3592934310436249,-0.19704772531986237,0.43892478942871094,-0.45063579082489014,0.3716030716896057,-0.3262099623680115,-0.3340659439563751,-0.4778519570827484,-0.29437175393104553,-0.17301104962825775,0.44610795378685,-0.46271100640296936,-0.2716847062110901,0.048107534646987915,-0.19381552934646606,0.26861873269081116,0.1601414531469345,-0.2817605137825012,-0.06844350695610046,0.23662051558494568,0.10796328634023666,-0.29067492485046387,-0.347909539937973,0.018457313999533653,-0.382291704416275,-0.39602628350257874,0.12839406728744507,-0.47208356857299805,-0.34881341457366943,-0.38039061427116394,-0.1495947241783142,-0.11647914350032806,-0.43996456265449524,-0.3620266914367676,0.2992378771305084,-0.24632497131824493,-0.4396187663078308,-0.3703545033931732,-0.1918978989124298,-0.31588178873062134,-0.16552133858203888,-0.49459949135780334,-0.27657681703567505,-0.06511764228343964,0.48961734771728516,-0.12241984158754349,-0.189988374710083,0.19346250593662262,-0.3314877152442932,0.047720711678266525,0.25230973958969116,0.41730302572250366,-0.43353667855262756,-0.0624399334192276,-0.08266563713550568,-0.08901583403348923,-0.48241496086120605,0.09784000366926193,-0.24911288917064667,-0.2101365178823471,-0.21550853550434113,-0.3295991122722626,0.19808156788349152,-0.039951469749212265,-0.3717321455478668,-0.4133462905883789,-0.1665372997522354,-0.07548840343952179,-0.16775654256343842,0.34201034903526306,-0.2915732264518738,-0.2105530947446823,-0.200778529047966,-0.1809285581111908,0.41597652435302734,0.45609527826309204,-0.33049654960632324,-0.015344057232141495,-0.04558315500617027,0.4796961545944214,-0.12048348039388657,0.1142122894525528,-0.43601518869400024,-0.45349952578544617,-0.246665820479393,0.015703706070780754,0.04787140339612961,0.21577352285385132,0.06699111312627792,0.2768961787223816,-0.16511525213718414,-0.16913868486881256,-0.4463139772415161,-0.16582158207893372,-0.48905184864997864,-0.16930978000164032,0.3870324194431305,-0.025027304887771606,0.49012285470962524,0.10604497790336609,-0.20319631695747375,0.08873384445905685,-0.2286568582057953,-0.3273260295391083,0.18973875045776367,-0.4466303884983063,0.16176001727581024,-0.34785646200180054,0.1492905467748642,0.13764172792434692,0.17958232760429382,0.26104873418807983,-0.38152843713760376,0.49042320251464844,-0.21451105177402496,-0.27604806423187256,-0.06583428382873535,-0.2215648591518402,-0.22691477835178375,-0.335518479347229,-0.19147741794586182,0.48520779609680176,0.0702485665678978,-0.22511830925941467,0.02388625405728817,0.09185642749071121,-0.18786171078681946,0.18937090039253235,-0.480679988861084,0.40887632966041565,-0.08556625247001648,-0.34444501996040344,-0.32835131883621216,-0.14430563151836395,-0.013052885420620441,-0.07527812570333481,-0.06823521852493286,-0.3458016812801361,-0.07380586862564087,-0.4520511329174042,-0.47184914350509644,-0.1093076840043068,0.4556344151496887,0.049822501838207245,0.0008294640574604273,0.007858882658183575,-0.0998416468501091,-0.4733089208602905,0.39906078577041626,0.1226581260561943,-0.13542667031288147,-0.06161205843091011,0.4202684164047241,0.18432575464248657,-0.3807227313518524,0.0987686812877655,-0.3052036464214325,0.39810287952423096,0.29126062989234924,0.0035054751206189394,0.3400844633579254,0.38562947511672974,0.2396722286939621,-0.011299142614006996,-0.09877993166446686,-0.04398451745510101,-0.1699611246585846,0.4623664319515228,0.05500726401805878,0.35516881942749023,-0.27200207114219666,-0.22875313460826874,-0.35985448956489563,0.274854451417923,0.09394059330224991,0.49330365657806396,0.4490496516227722,-0.10019215941429138,0.3156440854072571,0.21015584468841553,-0.20052146911621094,-0.080616295337677,0.3239400088787079,-0.23096004128456116,0.4365454912185669,-0.26984700560569763,-0.32056400179862976,0.03371693938970566,-0.2560637891292572,-0.19229166209697723,-0.17725318670272827,-0.3564677834510803,0.15459994971752167,0.1753930002450943,0.14951419830322266,-0.33713096380233765,-0.127870112657547,0.15150348842144012,-0.01099728886038065,-0.2020253688097,-0.4194572865962982,-0.38442540168762207,-0.18321062624454498,0.35539939999580383,0.13360463082790375,0.2468164563179016,0.003622203366830945,0.10610051453113556,0.07652032375335693,0.12503375113010406,-0.19962620735168457,-0.23607270419597626,-0.14806684851646423,0.18281123042106628,-0.3393498361110687,-0.44011011719703674,0.28586000204086304,-0.4197372496128082,-0.3521084785461426,-0.33649295568466187,0.2625036835670471,0.21634484827518463,0.22204896807670593,-0.25627952814102173,0.009601875208318233,0.011596344411373138,-0.1291191130876541,0.47565290331840515,0.028399471193552017,-0.4174973964691162,-0.11045822501182556,-0.4909379780292511,-0.48591679334640503,0.13962866365909576,-0.3588648736476898,-0.19652868807315826,-0.0948520302772522,-0.27766692638397217,-0.30545881390571594,0.329211950302124,-0.2409052699804306,0.1205756664276123,0.45083823800086975,-0.16257907450199127,0.03346645087003708,-0.12208378314971924,0.489006906747818,-0.3001722991466522,-0.11526842415332794,0.31485405564308167,0.3824070394039154,0.25141116976737976,-0.146392360329628,0.4933728277683258,0.3329351842403412,0.04525541141629219,0.38241907954216003,0.10724829882383347,-0.14323961734771729,0.24560005962848663,0.21633882820606232,-0.09811030328273773,0.19867071509361267,-0.18325744569301605,-0.21525181829929352,0.2444627583026886,0.24525658786296844,0.3552725911140442,-0.436869740486145,-0.38335299491882324,-0.0713396891951561,-0.12556201219558716,0.3791293501853943,-0.07139544934034348,0.3144318461418152,-0.2588854730129242,0.26085713505744934,-0.4925238788127899,0.2933843731880188,0.19283297657966614,-0.42028525471687317,0.1515781432390213,0.2732996642589569,0.2711614668369293,-0.45056799054145813,-0.0551268607378006,-0.254104882478714,-0.45799171924591064,-0.06238531693816185,0.4275070130825043,-0.24526387453079224,-0.35697102546691895,-0.3642849028110504,-0.2113325148820877,0.06207830086350441,-0.28269287943840027,-0.10904254019260406,-0.361139714717865,0.22924748063087463,-0.21460793912410736,0.03922862559556961,0.06485395133495331,-0.10816268622875214,0.2776876389980316,-0.4707011878490448,-0.07511035352945328,0.05799902230501175,0.23531527817249298,-0.16866812109947205,0.15938037633895874,-0.10653849691152573,0.4958280324935913,0.15638449788093567,0.31712260842323303,-0.2219700962305069,-0.13210180401802063,0.24422992765903473,-0.349101722240448,0.2659916877746582,-0.03796650841832161,-0.43802255392074585,-0.07270798832178116,-0.1847805231809616,0.29206496477127075,0.33717504143714905,-0.26925310492515564,-0.13896173238754272,0.2811791002750397,0.07205437123775482,0.11709638684988022,0.16799296438694,0.42044171690940857,-0.2121671587228775,0.3285813629627228,0.48013317584991455,0.46197786927223206,0.0029533158522099257,0.27840667963027954,0.05373597517609596,-0.08729369193315506,-0.3160928785800934,0.13419391214847565,-0.008461200632154942,0.11351483315229416,-0.17646412551403046,0.11910822987556458,0.44367679953575134,0.237801656126976,-0.3639551103115082,0.08261638879776001,-0.38531291484832764,-0.2468506246805191,0.29693108797073364,0.03309928625822067,-0.08067521452903748,-0.3472684323787689,0.22701135277748108,0.001880803145468235,0.3563286364078522,-0.12219567596912384,-0.06261948496103287,0.4341121017932892,-0.03104580007493496,-0.30092954635620117,-0.23487509787082672,0.4126358926296234,0.34261319041252136,-0.00009811203926801682,-0.4188462793827057,0.26091673970222473,0.2869720160961151,0.23858259618282318,-0.3640740215778351,0.0345376692712307,-0.19390347599983215,0.31273263692855835,0.16136541962623596,0.34592801332473755,0.09786206483840942,-0.31418943405151367,0.47230491042137146,0.0823121890425682,-0.3448616862297058,-0.13695013523101807,0.11876090615987778,-0.08385047316551208,0.33234038949012756,-0.1636708676815033,-0.10053645074367523,-0.20366816222667694,0.26384878158569336,-0.07321655750274658,-0.4346471428871155,0.06344778835773468,-0.3298454284667969,-0.43888112902641296,-0.06222110241651535,0.33633747696876526,-0.14501802623271942,0.1663750857114792,0.3756307065486908,0.20621933043003082,-0.20456045866012573,0.3335786759853363,0.14325164258480072,-0.4513067603111267,0.4608406126499176,0.035521503537893295,0.38953331112861633,0.017087243497371674,0.3443366289138794,-0.32314634323120117,-0.17699167132377625,0.41923728585243225,0.3206857144832611,0.061518970876932144,-0.11909501254558563,0.10501758754253387,0.21199296414852142,0.020541973412036896,-0.2995675206184387,0.0990530326962471,-0.11429838091135025,-0.02777370810508728,-0.3868016302585602,0.29059308767318726,-0.10662421584129333,-0.15135277807712555,0.08172363042831421,-0.09840160608291626,-0.2028278112411499,0.36314788460731506,0.4102933704853058,0.4197181463241577,-0.10068947076797485,0.4516761898994446,0.28649622201919556,-0.4082756042480469,0.23890332877635956,-0.4048980474472046,-0.364900141954422,-0.31770268082618713,-0.16337725520133972,-0.022936588153243065,0.1125725582242012,0.0916186049580574,0.40335431694984436,-0.29276812076568604,-0.39027139544487,0.22653555870056152,-0.1467869132757187,0.4774397015571594,-0.1055765450000763,0.4002503752708435,0.27025359869003296,-0.23408764600753784,-0.4132956266403198,0.49729442596435547,0.11961415410041809,-0.14457020163536072,-0.00020967377349734306,0.11181148141622543,0.386687308549881,0.2145509272813797,0.13979248702526093,-0.35374608635902405,0.30595463514328003,-0.4559791386127472,0.20773936808109283,-0.025945771485567093,0.11886473000049591,0.4585573375225067,-0.19032445549964905,0.22575406730175018,0.4386395812034607,-0.45323896408081055,-0.022180045023560524,-0.023982634767889977,-0.3327469825744629,-0.22898022830486298,-0.04467305913567543,-0.4601099491119385,0.40889012813568115,0.1741352379322052,-0.27708977460861206,0.21194157004356384,-0.1692381203174591,-0.30161526799201965,-0.2404068559408188,0.14176148176193237,-0.3090071380138397,-0.44806593656539917,0.1496495008468628,0.0883977934718132,-0.013026505708694458,-0.2061210423707962,-0.46156975626945496,-0.4576464593410492,0.4894565939903259,0.3427416980266571,-0.02281021513044834,0.0036133190151304007,-0.08059029281139374,0.005488951690495014,0.4822208881378174,-0.19836270809173584,0.2939949929714203,0.4810311198234558,0.12617728114128113,0.03570237010717392,-0.20625051856040955,-0.016974447295069695,0.22366738319396973,-0.3251774311065674,0.2906641364097595,0.05935445800423622,-0.3132522702217102,0.03701343759894371,0.12071503698825836,0.3200666904449463,-0.08870454132556915,0.41630449891090393,-0.3444112539291382,-0.34697645902633667,0.12402655929327011,-0.13346028327941895,-0.4544470012187958,0.1434869021177292,0.37898242473602295,0.24154897034168243,-0.06640684604644775,-0.21879543364048004,-0.1907876878976822,-0.31761565804481506,-0.19618956744670868,-0.4398801028728485,-0.42173150181770325,-0.3741343915462494,0.08742145448923111,0.285485178232193,-0.4289616346359253,0.4424690902233124,-0.1808052659034729,0.06381134688854218,0.2722109258174896,0.2053089588880539,0.14313925802707672,-0.12531119585037231,0.07537485659122467,0.2080896496772766,0.015474934130907059,-0.46779385209083557,0.015759320929646492,-0.4671716094017029,-0.1714382767677307,0.0836908146739006,0.3044877350330353,-0.3450756371021271,-0.38938257098197937,-0.07035762816667557,0.168134406208992,-0.19577470421791077,-0.24312858283519745,-0.07533746212720871,0.38958939909935,0.4475279152393341,-0.32772737741470337,0.3113649785518646,0.12675674259662628,-0.4937196373939514,0.13549914956092834,-0.4764573574066162,-0.49970242381095886,-0.12793028354644775,0.12607909739017487,0.42389413714408875,0.35549408197402954,-0.2444298267364502,0.07326607406139374,0.30051061511039734,0.11567577719688416,-0.2203889787197113,-0.2793218493461609,-0.20734189450740814,0.09125985950231552,0.273055762052536,0.24675261974334717,-0.4151465594768524,0.31222230195999146,-0.43800315260887146,-0.12529386579990387,0.10594901442527771,0.03793390095233917,0.2381833791732788,-0.10525962710380554,0.0030321464873850346,0.24764055013656616,-0.37382039427757263,0.25505444407463074,0.48430758714675903,-0.2709639370441437,0.4038761854171753,0.44437962770462036,-0.334584504365921,0.2576127052307129,-0.022692307829856873,0.3283824622631073,-0.33221757411956787,0.32909154891967773,-0.039790790528059006,0.3269386291503906,-0.30948305130004883,-0.4364325702190399,0.39668071269989014,0.19857177138328552,0.49624699354171753,-0.18624545633792877,0.25276800990104675,0.3444834053516388,0.25288495421409607,0.20589613914489746,-0.4086073338985443,0.24328917264938354,0.19491630792617798,0.22654666006565094,-0.406119167804718,-0.031980302184820175,-0.31004026532173157,0.22935859858989716,-0.1846691071987152,0.2465444952249527,-0.1921277493238449,0.1379214972257614,0.05306879058480263,-0.448866605758667,0.29354676604270935,0.1360434740781784,-0.4726022779941559,0.11702598631381989,0.2515575587749481,0.050650160759687424,-0.33431556820869446,-0.014786561951041222,-0.40675634145736694,-0.4334010183811188,0.12385021895170212,0.04198368266224861,-0.38825878500938416,-0.4126528799533844,0.09904307126998901,-0.48626771569252014,-0.18530556559562683,-0.24493248760700226,-0.21704129874706268,-0.003956185653805733,0.16311930119991302,0.09658343344926834,0.06829331815242767,-0.24233536422252655]},{"type":"f32","elements":[-0.45878076553344727,0.4156118929386139,-0.2095644772052765,0.46915704011917114,0.3715795874595642,-0.4189431071281433,0.08681032806634903,-0.46126991510391235,0.06379720568656921,0.42591431736946106,0.2269851267337799,-0.4301864504814148,0.24978014826774597,-0.43028518557548523,-0.2844429314136505,0.32482075691223145,0.36050179600715637,0.42107725143432617,-0.1732179969549179,-0.18182654678821564,0.06224812567234039,0.07809695601463318,-0.4023917019367218,-0.0019224835559725761,0.3692608177661896,0.06667988747358322,-0.29194262623786926,-0.452645868062973,-0.27673980593681335,-0.4529664218425751,0.14791472256183624,0.44095706939697266,-0.16493414342403412,0.42376258969306946,-0.14794272184371948,-0.340057909488678,0.3652994632720947,-0.15516085922718048,0.23568661510944366,-0.2543812692165375,-0.10453734546899796,-0.44283556938171387,0.259536474943161,-0.08558378368616104,0.2785433530807495,-0.0027290123980492353,-0.2349604219198227,-0.37524694204330444,0.18625861406326294,0.13160082697868347,0.08537006378173828,-0.10614457726478577,0.46692681312561035,-0.33576223254203796,0.22460487484931946,-0.42095884680747986,-0.19252485036849976,-0.41211822628974915,0.2226089984178543,-0.20346388220787048,-0.1658424288034439,0.33942586183547974,0.16150899231433868,0.48809298872947693,0.15084156394004822,0.2552066445350647,-0.13308389484882355,0.2943626344203949,-0.45789194107055664,-0.19800543785095215,0.3925282955169678,0.4533611536026001,0.4361128807067871,-0.07800010591745377,0.21211643517017365,-0.3327242136001587,0.3938230872154236,-0.3821586072444916,0.2531241774559021,-0.15875236690044403,0.4064771831035614,-0.08104581385850906,0.08184164762496948,-0.4776093363761902,0.05655277892947197,0.49504750967025757,0.15517708659172058,-0.03880573809146881,-0.38813668489456177,0.20402362942695618,0.10861745476722717,-0.12904205918312073,-0.027366220951080322,-0.4289080500602722,0.21474596858024597,0.4034278392791748,-0.006464541889727116,0.3937035799026489,0.33573126792907715,0.4062729477882385,-0.42870989441871643,-0.26126354932785034,-0.35151761770248413,0.36376693844795227,0.05179758369922638,0.3405049741268158,0.0273024570196867,-0.37906983494758606,0.004224381409585476,0.27457186579704285,-0.04775385931134224,-0.1783025860786438,-0.4914470911026001,0.4289730489253998,0.32253575325012207,0.20539140701293945,0.3727577030658722,0.16339421272277832,-0.421144962310791,0.4336792230606079,-0.3076176643371582,0.07647654414176941,-0.2550829350948334,-0.11377443373203278,0.28953635692596436,-0.027636291459202766,-0.21429935097694397,-0.18386325240135193,-0.40377387404441833,-0.4826619029045105,0.1565195769071579,-0.1444893777370453,-0.08149337023496628,0.4292928874492645,-0.28380948305130005,-0.4455101788043976,-0.4276997148990631,0.2605760991573334,0.07954384386539459,-0.03216078504920006,0.15358157455921173,-0.36902332305908203,0.3307608664035797,-0.038172561675310135,0.3822233974933624,0.38549625873565674,0.2954825162887573,0.1516232192516327,0.35342469811439514,0.0075531634502112865,-0.4199694097042084,-0.2418214976787567,-0.06384515762329102,-0.07529562711715698,0.4562091529369354,0.007161292247474194,-0.07904095947742462,-0.2128589004278183,0.4661209285259247,-0.16579405963420868,0.2400188148021698,0.19378554821014404,-0.3011295199394226,-0.25904813408851624,-0.325699120759964,-0.2855636477470398,0.40329086780548096,-0.2386757880449295,0.4615201950073242,-0.4251434803009033,0.07331407815217972,-0.233407124876976,0.15799236297607422,0.010676143690943718,-0.24889694154262543,-0.07861799746751785,-0.43044260144233704,-0.15292812883853912,0.37412264943122864,-0.26154717803001404,-0.4064762592315674,-0.4286859333515167,-0.3398529589176178,-0.0919790267944336,-0.04472358152270317,0.2034885436296463,-0.4781953990459442,0.3969120383262634,-0.3459862768650055,0.3587552309036255,-0.188913494348526,-0.01839265786111355,0.08685829490423203,0.35245367884635925,-0.48733747005462646,-0.37778714299201965,-0.09708747267723083,0.46267277002334595,0.23775877058506012,0.08886651694774628,-0.4484403431415558,0.2635027766227722,0.31212329864501953,-0.08358489722013474,0.27089807391166687,0.254218727350235,0.41289326548576355,0.14501073956489563,0.17263108491897583,-0.0000076123978942632675,0.15783259272575378,0.10223346948623657,-0.25218063592910767,-0.38359346985816956,-0.34337225556373596,0.3575287461280823,0.34811729192733765,0.47646406292915344,0.4615945816040039,0.2570939362049103,-0.2960904836654663,-0.06315287947654724,0.08050438016653061,-0.32467347383499146,0.40857142210006714,-0.16149228811264038,-0.4355664849281311,0.4544408619403839,0.19063787162303925,-0.06766535341739655,0.45266833901405334,-0.1283809393644333,0.08403186500072479,-0.2604379951953888,0.051435939967632294,0.009477874264121056,-0.4038059115409851,-0.257627934217453,0.11345209181308746,0.37030136585235596,-0.3837498724460602,-0.39825543761253357,-0.06488209962844849,-0.20920969545841217,-0.031731657683849335,-0.14777123928070068,-0.0946633443236351,0.25490427017211914,0.3016417324542999,0.2752968370914459,-0.007184213027358055,-0.3431139588356018,-0.346352219581604,-0.3477839529514313,-0.4454280734062195,0.2019336074590683,0.15744321048259735,0.37194913625717163,0.0010695208329707384,-0.26513010263442993,0.37460607290267944,0.38221749663352966,0.22735026478767395,0.26084449887275696,0.11837264150381088,0.012673042714595795,0.19836294651031494,0.23274224996566772,-0.10320723056793213,-0.11772017925977707,-0.06742052733898163,0.31921452283859253,-0.33968254923820496,-0.02290969341993332,-0.13558810949325562,-0.09678001701831818,-0.05062439292669296,0.4119270145893097,-0.17317672073841095,0.1299515813589096,0.1520722210407257,-0.11673649400472641,0.49964940547943115,-0.49061471223831177,-0.09778346866369247,-0.42110171914100647,-0.11726352572441101,-0.27264052629470825,-0.09040860831737518,-0.4686621427536011,-0.4924647808074951,-0.29093989729881287,0.18687386810779572,0.40021759271621704,0.4310356676578522,0.07873430103063583,-0.012457997538149357,0.43684640526771545,0.0002141373697668314,-0.1605244278907776,-0.34446120262145996,-0.30417659878730774,0.004218440502882004,0.3030719757080078,-0.3177303373813629,0.2231244444847107,-0.4035319685935974,0.46236950159072876,-0.07327757030725479,0.27847006916999817,-0.26259586215019226,-0.34439176321029663,0.42783790826797485,-0.24043771624565125,0.25068235397338867,0.4433233141899109,0.09309649467468262,0.43974918127059937,0.11626990884542465,0.3578883409500122,-0.3615259826183319,-0.49516433477401733,0.4501928985118866,0.25307777523994446,0.39524272084236145,-0.21625231206417084,0.2858809530735016,-0.18771907687187195,0.48541224002838135,0.33629974722862244,-0.4760375916957855,0.4114374816417694,-0.11777249723672867,0.2607918977737427,-0.3755606710910797,-0.33911797404289246,0.22723332047462463,0.43666398525238037,-0.4406863749027252,0.23004405200481415,0.3894587755203247,0.3729054033756256,0.17567843198776245,0.1549491137266159,0.023301050066947937,-0.4591929316520691,-0.035956043750047684,-0.15227867662906647,0.11279778182506561,-0.05218697339296341,-0.24424496293067932,0.2455810010433197,-0.2993990182876587,0.0705772191286087,0.4968034327030182,-0.4808415174484253,-0.10578764975070953,-0.4073255956172943,0.22498279809951782,-0.3312493860721588,0.038617901504039764,0.07361309975385666,-0.2825585901737213,-0.42641493678092957,0.06604190915822983,0.3523167073726654,0.021698586642742157,0.1543431431055069,-0.3161708116531372,0.3163514733314514,0.36861521005630493,0.09865562617778778,0.4516128897666931,0.24114233255386353,-0.24425294995307922,0.11222973465919495,-0.3851521909236908,-0.08038190007209778,0.024933740496635437,0.37142524123191833,0.14461001753807068,0.4362276494503021,-0.10011450946331024,-0.3909939229488373,-0.41735824942588806,-0.18093906342983246,0.2914166748523712,-0.4404929578304291,-0.4739275872707367,-0.26222020387649536,0.32446879148483276,-0.4580690860748291,-0.46284857392311096,-0.33917975425720215,0.21879535913467407,0.322600781917572,-0.2702464759349823,0.3750905692577362,0.49990999698638916,0.3276421129703522,0.13572683930397034,0.15755583345890045,0.3280135989189148,0.11775073409080505,0.145542711019516,-0.2404906153678894,0.30876484513282776,-0.05664963275194168,0.166156604886055,0.13541100919246674,0.18144679069519043,0.12222722917795181,0.1913812905550003,-0.12658511102199554,0.2700500190258026,0.2764151096343994,-0.32333001494407654,0.16361922025680542,0.134504497051239,-0.07205893844366074,0.07201751321554184,-0.34796497225761414,-0.40607377886772156,-0.24879270792007446,0.19230082631111145,0.08345989137887955,0.4891723096370697,-0.41339558362960815,-0.0773930475115776,-0.1293746680021286,-0.1629665493965149,-0.3651416301727295,-0.2992982268333435,-0.08902876824140549,-0.09903467446565628,-0.07322745025157928,0.010706108063459396,0.42156901955604553,-0.4357297718524933,0.170242577791214,-0.04850127547979355,0.20824496448040009,0.43843773007392883,0.010720695368945599,0.07444249838590622,-0.13468724489212036,-0.3742630183696747,-0.19392473995685577,0.07802551984786987,0.37188276648521423,-0.27367129921913147,0.47156721353530884,-0.1780741661787033,0.26370102167129517,0.06741940975189209,0.43879011273384094,0.09426716715097427,0.34640076756477356,-0.3394564986228943,-0.02710055001080036,0.11123756319284439,-0.10121738910675049,-0.27223435044288635,-0.006904677487909794,0.1529892534017563,-0.47330817580223083,0.3723932206630707,-0.051558107137680054,-0.34793204069137573,0.4395013749599457,0.3838604688644409,-0.2471826821565628,-0.41225457191467285,-0.2601362466812134,0.16091352701187134,-0.14333803951740265,-0.1341598778963089,-0.45730727910995483,0.1436530500650406,-0.38352203369140625,-0.26272812485694885,-0.44339510798454285,0.29617080092430115,-0.13616879284381866,-0.2335948348045349,-0.3728983402252197,0.2823476493358612,-0.1827867180109024,0.43939661979675293,0.27011799812316895,0.49199846386909485,0.1938939094543457,-0.2867357134819031,0.10859713703393936,0.31440573930740356,0.027619320899248123,0.0027880691923201084,0.08105770498514175,0.42653021216392517,0.07478168606758118,0.21828223764896393,0.3296232521533966,-0.0666806548833847,0.48409149050712585,0.277025043964386,-0.4553385078907013,0.0369429886341095,0.17605550587177277,0.12304774671792984,0.162971630692482,-0.3325810730457306,-0.3439340889453888,0.11162593215703964,-0.06460665166378021,-0.3057253360748291,-0.36778056621551514,-0.37770524621009827,-0.282484233379364,0.04131770879030228,-0.04028846696019173,-0.15511152148246765,-0.3813067078590393,-0.14090490341186523,0.33031272888183594,0.042239245027303696,-0.2717273235321045,-0.26163628697395325,-0.43196359276771545,-0.0761706531047821,0.2427230030298233,0.45986679196357727,-0.008159087039530277,-0.45844873785972595,0.14606890082359314,-0.2669390141963959,0.45235922932624817,0.2517651617527008,-0.22156931459903717,0.20909219980239868,0.21653038263320923,0.40661364793777466,0.45260176062583923,0.36378151178359985,-0.15345339477062225,0.3539716899394989,0.013710488565266132,0.32086801528930664,-0.18079833686351776,0.1607934683561325,0.19186213612556458,0.14553755521774292,0.08391842246055603,0.23993661999702454,-0.254545122385025,-0.2960833013057709,0.1660311073064804,-0.28769829869270325,-0.4829638600349426,-0.39186549186706543,-0.3998708426952362,-0.14702188968658447,0.14876198768615723,-0.006410476751625538,0.3208443522453308,-0.3655259311199188,0.21683236956596375,-0.27987533807754517,0.013785896822810173,-0.44855448603630066,0.011416571214795113,-0.10223941504955292,0.3179369270801544,0.36607909202575684,-0.11511462926864624,0.3505161702632904,-0.44688090682029724,0.4480103552341461,-0.0737287774682045,0.21701446175575256,-0.04582478478550911,0.29300984740257263,-0.04489108920097351,0.2846292555332184,0.4304441511631012,0.41638216376304626,0.2300696223974228,-0.10084056109189987,0.4020756483078003,-0.04614536464214325,-0.32719409465789795,-0.024621576070785522,0.31265610456466675,0.10206381976604462,0.35612884163856506,0.3928506672382355,0.1957826316356659,-0.15356555581092834,-0.33287614583969116,-0.09333022683858871,0.3855341672897339,-0.024005131796002388,0.1514110267162323,-0.4660917818546295,-0.10207655280828476,-0.4586451053619385,-0.3683818280696869,-0.08514750003814697,0.07895973324775696,-0.06268512457609177,-0.07788405567407608,-0.11654749512672424,-0.2908395826816559,0.31356778740882874,0.1959967315196991,0.3750861883163452,-0.4100104868412018,-0.15587562322616577,-0.06117488443851471,-0.4269193410873413,0.02267705462872982,-0.3981357514858246,-0.44300052523612976,-0.3884366452693939,0.4817848801612854,0.2959577739238739,-0.35935086011886597,-0.4010211229324341,-0.06244107335805893,-0.27459076046943665,0.16174426674842834,-0.0610034242272377,0.05278368666768074,-0.08206149935722351,0.40241503715515137,-0.39841458201408386,0.3729785978794098,-0.1256200224161148,0.31001779437065125,0.23902767896652222,-0.15684901177883148,-0.40684065222740173,-0.4407937824726105,0.39533481001853943,0.013040703721344471,-0.07469214498996735,0.002567209303379059,0.05139382556080818,-0.2851394712924957,0.3169367015361786,-0.13744010031223297,-0.06078576296567917,0.20574314892292023,-0.0750165730714798,-0.173725426197052,0.20626965165138245,0.2858077585697174,0.18469759821891785,-0.4984200596809387,0.23897409439086914,-0.3816079795360565,0.00042124371975660324,0.298046737909317,-0.4846939444541931,0.313855916261673,0.024628572165966034,0.40976589918136597,0.18959856033325195,-0.27472347021102905,0.4638436436653137,-0.06767614930868149,-0.23622645437717438,-0.09933579713106155,-0.15808340907096863,0.10099072009325027,-0.14943350851535797,-0.2692626714706421,0.006733741611242294,0.4889528155326843,0.08545637130737305,0.33566635847091675,0.20230364799499512,-0.08343582600355148,-0.26051822304725647,-0.0726715475320816,-0.3845275342464447,0.08000868558883667,0.38699179887771606,-0.3207744061946869,0.27225345373153687,0.39897993206977844,-0.30274373292922974,-0.2395237535238266,0.14753352105617523,-0.06378262490034103,0.37046924233436584,0.3306887149810791,0.3166646957397461,0.09309812635183334,0.478832483291626,0.4078664183616638,-0.21583004295825958,-0.45825743675231934,0.02348433807492256,0.1513809859752655,-0.4511995315551758,0.22226406633853912,-0.07506532222032547,0.325715035200119,-0.11453563719987869,0.035507213324308395,-0.34217411279678345,-0.43709784746170044,0.14432328939437866,0.056861985474824905,0.14278991520404816,0.45077991485595703,0.2904766798019409,-0.386104017496109,0.051265742629766464,0.1477624773979187,0.27795496582984924,0.011066739447414875,-0.4195190966129303,0.1367424726486206,0.06314980983734131,-0.4958963692188263,0.3841458261013031,0.1677221953868866,-0.06070376932621002,0.4237477779388428,0.43780142068862915,0.17811761796474457,-0.48145392537117004,0.35162460803985596,0.38141921162605286,-0.41400158405303955,-0.3148731291294098,-0.20023195445537567,-0.20152416825294495,0.24771937727928162,-0.22799792885780334,0.19461283087730408,0.35750654339790344,-0.35629260540008545,-0.08524511754512787,0.24666740000247955,0.3211991786956787,0.4554036855697632,-0.46387535333633423,-0.31330621242523193,-0.48131969571113586,-0.025163104757666588,-0.3467695415019989,-0.30651289224624634,-0.17540225386619568,0.2672096788883209,0.4034518301486969,-0.18481695652008057,-0.3312634825706482,-0.10001164674758911,-0.03291599079966545,0.18589840829372406,-0.4716254472732544,0.2111048698425293,0.42284703254699707,-0.3570682108402252,0.02258675917983055,0.3650065064430237,0.44750121235847473,0.0564713180065155,0.10935751348733902,-0.04911898821592331,-0.2347816824913025,0.40830665826797485,0.24852295219898224,-0.1484660506248474,0.11907397210597992,-0.2993224263191223,-0.10850680619478226,0.21426281332969666,0.19371025264263153,-0.22547969222068787,-0.3090656101703644,0.27359509468078613]},{"type":"f32","elements":[-0.03937773033976555,0.3427097499370575,-0.06627504527568817,0.20535646378993988,0.2784351110458374,0.005273152608424425,0.1897362768650055,-0.164345383644104,-0.47564929723739624,0.3602859675884247,-0.1455530971288681,-0.41299039125442505,-0.12652063369750977,-0.13905362784862518,-0.18521206080913544,-0.2903560698032379,0.04390312358736992,-0.46364080905914307,0.3360866904258728,-0.10077066719532013,0.45895734429359436,-0.3762558400630951,-0.24208763241767883,-0.26059529185295105,0.2904984652996063,0.47576314210891724,-0.3301166892051697,-0.09025393426418304,0.39812153577804565,-0.16463273763656616,0.13113689422607422,-0.1219831332564354,-0.37226930260658264,0.06143113598227501,-0.14280903339385986,-0.45981016755104065,-0.292855829000473,-0.44332507252693176,-0.34282729029655457,0.18021126091480255,0.10918916761875153,-0.48831960558891296,0.18498608469963074,0.37692248821258545,-0.26936501264572144,-0.09518346190452576,0.02915196493268013,-0.26846379041671753,-0.20809291303157806,0.35535120964050293,0.1770673394203186,-0.4342605173587799,0.4144541025161743,-0.2803643047809601,0.23097018897533417,-0.30845198035240173,0.34662288427352905,0.015883876010775566,0.08492157608270645,0.21329809725284576,-0.13452835381031036,0.3642745018005371,-0.2474336475133896,-0.08757644891738892,-0.03241521492600441,0.352182000875473,0.3674585521221161,0.30594000220298767,0.14296041429042816,0.3045610189437866,-0.2739390730857849,-0.2862599194049835,0.13001573085784912,0.49897822737693787,0.47676563262939453,0.026597842574119568,0.18677030503749847,0.07713908702135086,0.2456037551164627,0.16921891272068024,0.050644777715206146,0.47340837121009827,0.10817725956439972,-0.46148109436035156,0.3954375684261322,-0.19804756343364716,-0.08232231438159943,-0.4937865734100342,0.19519734382629395,-0.19162504374980927,0.39501816034317017,0.37066370248794556,0.4904284179210663,0.048559073358774185,-0.10331682860851288,-0.1627773940563202,-0.12467830628156662,0.07507660984992981,-0.30515629053115845,-0.1811743527650833,-0.05303420126438141,0.28883644938468933,0.2640378475189209,0.4145945608615875,-0.16910932958126068,-0.432504266500473,0.4424736201763153,-0.06206391006708145,-0.072415791451931,-0.34382274746894836,0.2996058762073517,-0.03703179582953453,-0.2996367812156677,-0.2645932734012604,0.4816422760486603,-0.48745644092559814,-0.1694962978363037,-0.4063674211502075,-0.32516399025917053,-0.4148155748844147,0.2422979474067688,-0.19702796638011932,-0.26899242401123047,0.3409392237663269,-0.08294542878866196,-0.08902785181999207,-0.17591595649719238,-0.29034319519996643,0.07241560518741608,-0.22803142666816711,0.3235810399055481,0.16312414407730103,0.2082710862159729,-0.40486425161361694,-0.3453238010406494,0.4038429856300354,-0.4760414958000183,-0.40975281596183777,-0.19253398478031158,-0.30282217264175415,-0.2699166238307953,0.29101720452308655,0.06259766966104507,-0.37720122933387756,-0.4382983446121216,0.12360699474811554,-0.47106146812438965,-0.09726610034704208,-0.22040081024169922,0.45982876420021057,0.24040423333644867,0.28497499227523804,-0.19407907128334045,0.16619142889976501,-0.0025547444820404053,0.06655660271644592,0.019033515825867653,-0.17713288962841034,0.45423614978790283,0.40126901865005493,0.472894549369812,-0.41790810227394104,-0.1876995861530304,0.11452923715114594,0.16105124354362488,0.41838377714157104,-0.09024815261363983,0.4608055055141449,-0.1897909790277481,-0.4743054509162903,-0.45397767424583435,-0.3214057683944702,0.2633278965950012,-0.324733704328537,-0.33427906036376953,-0.4214727282524109,-0.04915591701865196,0.23322762548923492,-0.1798735409975052,-0.20198090374469757,0.025515655055642128,0.39121195673942566,-0.04729560390114784,0.03505341708660126,-0.2555861175060272,-0.3578600287437439,0.27124592661857605,-0.07329002022743225,0.14905574917793274,0.2875632345676422,0.44104307889938354,0.49096763134002686,0.44045114517211914,0.1665557473897934,0.26669996976852417,0.3745655119419098,-0.16761095821857452,0.2640661895275116,0.42594778537750244,0.1927402913570404,-0.11099492013454437,-0.29205086827278137,0.1906323879957199,0.21603935956954956,-0.2201673537492752,0.35429519414901733,-0.4787072539329529,0.29670873284339905,-0.04377669468522072,0.3348771035671234,0.4516798257827759,0.09198979288339615,-0.1196865439414978,-0.1746969223022461,0.09180542826652527,0.13203264772891998,-0.24910388886928558,0.4548022449016571,0.23027102649211884,-0.22292234003543854,-0.21258150041103363,-0.11836187541484833,0.41644200682640076,-0.39261120557785034,-0.3344477713108063,-0.3679303526878357,-0.42674317955970764,-0.034575205296278,0.04584153741598129,0.47679856419563293,-0.0800928995013237,0.1951667070388794,0.43069642782211304,0.1835406869649887,0.38337141275405884,0.3115692734718323,-0.14652547240257263,0.14589610695838928,-0.13235992193222046,0.4404808580875397,-0.1280498504638672,0.3078169524669647,